<?xml version="1.0"?>
<opencv_storage>
<my_nn type_id="opencv-ml-ann-mlp">
  <layer_sizes type_id="opencv-matrix">
    <rows>1</rows>
    <cols>4</cols>
    <dt>i</dt>
    <data>
      32 150 150 128</data></layer_sizes>
  <activation_function>SIGMOID_SYM</activation_function>
  <f_param1>6.6666666666666663e-01</f_param1>
  <f_param2>1.7159000000000000e+00</f_param2>
  <min_val>-9.4999999999999996e-01</min_val>
  <max_val>9.4999999999999996e-01</max_val>
  <min_val1>-9.7999999999999998e-01</min_val1>
  <max_val1>9.7999999999999998e-01</max_val1>
  <training_params>
    <train_method>BACKPROP</train_method>
    <dw_scale>1.0000000000000000e-02</dw_scale>
    <moment_scale>5.0000000000000003e-02</moment_scale>
    <term_criteria><epsilon>1.0000000474974513e-03</epsilon>
      <iterations>100000</iterations></term_criteria></training_params>
  <input_scale>
    1.8561982546994229e+00 -8.5013880065233571e-01
    1.4250856858528702e+00 -7.9804798407760735e-01
    1.6863646189326300e+00 -8.1114138170659500e-01
    1.9447746039610350e+00 -8.5570082574285544e-01
    1.8879488311782355e+00 -1.0157164711738909e+00
    1.4467084482421362e+00 -6.5535892705368770e-01
    1.6251442506506550e+00 -7.5244178805125328e-01
    1.6117380299983199e+00 -5.8344916685939185e-01
    1.6300075489899417e+00 -6.9275320832072518e-01
    1.3774588170118691e+00 -7.3143063183330259e-01
    1.4602430703884601e+00 -8.1043490406559549e-01
    1.9025061191889050e+00 -1.3108267161211555e+00
    1.2606832659630660e+00 -8.2070480614195596e-01
    1.4223283367912420e+00 -5.4475175299104572e-01
    1.2789271497700267e+00 -5.5249652870065158e-01
    1.6079768268282348e+00 -5.2902437602648933e-01
    1.2008419412531481e+00 -5.7280160597775165e-01
    1.2451697441598069e+00 -5.0429374638472180e-01
    1.1705148987375105e+00 -7.3391284150841907e-01
    1.1155331174137413e+00 -9.4485655044943884e-01
    1.0853190074330832e+00 -1.4782044881238594e+00
    1.0165226587606451e+00 -8.5184598804142053e-01
    1.0257818526983546e+00 -7.1189260577265812e-01
    1.0161929962711207e+00 -8.0888962503181217e-01
    9.6704789245391154e-01 -8.3843052275754126e-01
    9.9438563803252533e-01 -1.0202396646213709e+00
    9.8011005313152821e-01 -9.7912994307839674e-01
    1.0146607161445640e+00 -1.1333760199334779e+00
    1.0086555959569354e+00 -7.2320606230112272e-01
    9.7723374369259663e-01 -1.1648626224815752e+00
    1.0410348499333482e+00 -1.3960277337606199e+00
    9.9493671652564608e-01 -1.2078531738621343e+00</input_scale>
  <output_scale>
    5.2631578947368418e-01 4.9999999999999994e-01 5.2631578947368418e-01
    4.9999999999999994e-01 5.2631578947368418e-01 4.9999999999999994e-01
    5.2631578947368418e-01 4.9999999999999994e-01 5.2631578947368418e-01
    4.9999999999999994e-01 5.2631578947368418e-01 4.9999999999999994e-01
    5.2631578947368418e-01 4.9999999999999994e-01 5.2631578947368418e-01
    4.9999999999999994e-01 5.2631578947368418e-01 4.9999999999999994e-01
    5.2631578947368418e-01 4.9999999999999994e-01 5.2631578947368418e-01
    4.9999999999999994e-01 5.2631578947368418e-01 4.9999999999999994e-01
    5.2631578947368418e-01 4.9999999999999994e-01 5.2631578947368418e-01
    4.9999999999999994e-01 5.2631578947368418e-01 4.9999999999999994e-01
    5.2631578947368418e-01 4.9999999999999994e-01 5.2631578947368418e-01
    4.9999999999999994e-01 5.2631578947368418e-01 4.9999999999999994e-01
    5.2631578947368418e-01 4.9999999999999994e-01 5.2631578947368418e-01
    4.9999999999999994e-01 5.2631578947368418e-01 4.9999999999999994e-01
    5.2631578947368418e-01 4.9999999999999994e-01 5.2631578947368418e-01
    4.9999999999999994e-01 5.2631578947368418e-01 4.9999999999999994e-01
    5.2631578947368418e-01 4.9999999999999994e-01 5.2631578947368418e-01
    4.9999999999999994e-01 5.2631578947368418e-01 4.9999999999999994e-01
    5.2631578947368418e-01 4.9999999999999994e-01 1. 0. 1. 0. 1. 0. 1.
    0. 1. 0. 1. 0. 1. 0. 1. 0. 5.2631578947368418e-01
    4.9999999999999994e-01 5.2631578947368418e-01 4.9999999999999994e-01
    5.2631578947368418e-01 4.9999999999999994e-01 5.2631578947368418e-01
    4.9999999999999994e-01 5.2631578947368418e-01 4.9999999999999994e-01
    5.2631578947368418e-01 4.9999999999999994e-01 5.2631578947368418e-01
    4.9999999999999994e-01 5.2631578947368418e-01 4.9999999999999994e-01
    5.2631578947368418e-01 4.9999999999999994e-01 5.2631578947368418e-01
    4.9999999999999994e-01 5.2631578947368418e-01 4.9999999999999994e-01
    5.2631578947368418e-01 4.9999999999999994e-01 5.2631578947368418e-01
    4.9999999999999994e-01 5.2631578947368418e-01 4.9999999999999994e-01
    5.2631578947368418e-01 4.9999999999999994e-01 5.2631578947368418e-01
    4.9999999999999994e-01 5.2631578947368418e-01 4.9999999999999994e-01
    5.2631578947368418e-01 4.9999999999999994e-01 5.2631578947368418e-01
    4.9999999999999994e-01 5.2631578947368418e-01 4.9999999999999994e-01
    5.2631578947368418e-01 4.9999999999999994e-01 5.2631578947368418e-01
    4.9999999999999994e-01 5.2631578947368418e-01 4.9999999999999994e-01
    5.2631578947368418e-01 4.9999999999999994e-01 5.2631578947368418e-01
    4.9999999999999994e-01 5.2631578947368418e-01 4.9999999999999994e-01
    5.2631578947368418e-01 4.9999999999999994e-01 5.2631578947368418e-01
    4.9999999999999994e-01 1. 0. 1. 0. 1. 0. 1. 0. 1. 0. 1. 0.
    5.2631578947368418e-01 4.9999999999999994e-01 1. 0. 1. 0. 1. 0.
    5.2631578947368418e-01 4.9999999999999994e-01 1. 0. 1. 0.
    5.2631578947368418e-01 4.9999999999999994e-01 5.2631578947368418e-01
    4.9999999999999994e-01 5.2631578947368418e-01 4.9999999999999994e-01
    5.2631578947368418e-01 4.9999999999999994e-01 5.2631578947368418e-01
    4.9999999999999994e-01 5.2631578947368418e-01 4.9999999999999994e-01
    5.2631578947368418e-01 4.9999999999999994e-01 5.2631578947368418e-01
    4.9999999999999994e-01 5.2631578947368418e-01 4.9999999999999994e-01
    5.2631578947368418e-01 4.9999999999999994e-01 5.2631578947368418e-01
    4.9999999999999994e-01 5.2631578947368418e-01 4.9999999999999994e-01
    5.2631578947368418e-01 4.9999999999999994e-01 5.2631578947368418e-01
    4.9999999999999994e-01 5.2631578947368418e-01 4.9999999999999994e-01
    5.2631578947368418e-01 4.9999999999999994e-01 5.2631578947368418e-01
    4.9999999999999994e-01 5.2631578947368418e-01 4.9999999999999994e-01
    5.2631578947368418e-01 4.9999999999999994e-01 5.2631578947368418e-01
    4.9999999999999994e-01 5.2631578947368418e-01 4.9999999999999994e-01
    5.2631578947368418e-01 4.9999999999999994e-01 5.2631578947368418e-01
    4.9999999999999994e-01 5.2631578947368418e-01 4.9999999999999994e-01
    5.2631578947368418e-01 4.9999999999999994e-01 5.2631578947368418e-01
    4.9999999999999994e-01 5.2631578947368418e-01 4.9999999999999994e-01
    5.2631578947368418e-01 4.9999999999999994e-01 5.2631578947368418e-01
    4.9999999999999994e-01 5.2631578947368418e-01 4.9999999999999994e-01
    5.2631578947368418e-01 4.9999999999999994e-01 5.2631578947368418e-01
    4.9999999999999994e-01 5.2631578947368418e-01 4.9999999999999994e-01
    5.2631578947368418e-01 4.9999999999999994e-01 5.2631578947368418e-01
    4.9999999999999994e-01 5.2631578947368418e-01 4.9999999999999994e-01
    5.2631578947368418e-01 4.9999999999999994e-01 5.2631578947368418e-01
    4.9999999999999994e-01 5.2631578947368418e-01 4.9999999999999994e-01
    5.2631578947368418e-01 4.9999999999999994e-01 1. 0.
    5.2631578947368418e-01 4.9999999999999994e-01 5.2631578947368418e-01
    4.9999999999999994e-01 1. 0. 1. 0. 5.2631578947368418e-01
    4.9999999999999994e-01 5.2631578947368418e-01 4.9999999999999994e-01
    1. 0. 1. 0. 1. 0. 5.2631578947368418e-01 4.9999999999999994e-01</output_scale>
  <inv_output_scale>
    1.8999999999999999e+00 -9.4999999999999996e-01
    1.8999999999999999e+00 -9.4999999999999996e-01
    1.8999999999999999e+00 -9.4999999999999996e-01
    1.8999999999999999e+00 -9.4999999999999996e-01
    1.8999999999999999e+00 -9.4999999999999996e-01
    1.8999999999999999e+00 -9.4999999999999996e-01
    1.8999999999999999e+00 -9.4999999999999996e-01
    1.8999999999999999e+00 -9.4999999999999996e-01
    1.8999999999999999e+00 -9.4999999999999996e-01
    1.8999999999999999e+00 -9.4999999999999996e-01
    1.8999999999999999e+00 -9.4999999999999996e-01
    1.8999999999999999e+00 -9.4999999999999996e-01
    1.8999999999999999e+00 -9.4999999999999996e-01
    1.8999999999999999e+00 -9.4999999999999996e-01
    1.8999999999999999e+00 -9.4999999999999996e-01
    1.8999999999999999e+00 -9.4999999999999996e-01
    1.8999999999999999e+00 -9.4999999999999996e-01
    1.8999999999999999e+00 -9.4999999999999996e-01
    1.8999999999999999e+00 -9.4999999999999996e-01
    1.8999999999999999e+00 -9.4999999999999996e-01
    1.8999999999999999e+00 -9.4999999999999996e-01
    1.8999999999999999e+00 -9.4999999999999996e-01
    1.8999999999999999e+00 -9.4999999999999996e-01
    1.8999999999999999e+00 -9.4999999999999996e-01
    1.8999999999999999e+00 -9.4999999999999996e-01
    1.8999999999999999e+00 -9.4999999999999996e-01
    1.8999999999999999e+00 -9.4999999999999996e-01
    1.8999999999999999e+00 -9.4999999999999996e-01 1. 0. 1. 0. 1. 0. 1.
    0. 1. 0. 1. 0. 1. 0. 1. 0. 1.8999999999999999e+00
    -9.4999999999999996e-01 1.8999999999999999e+00
    -9.4999999999999996e-01 1.8999999999999999e+00
    -9.4999999999999996e-01 1.8999999999999999e+00
    -9.4999999999999996e-01 1.8999999999999999e+00
    -9.4999999999999996e-01 1.8999999999999999e+00
    -9.4999999999999996e-01 1.8999999999999999e+00
    -9.4999999999999996e-01 1.8999999999999999e+00
    -9.4999999999999996e-01 1.8999999999999999e+00
    -9.4999999999999996e-01 1.8999999999999999e+00
    -9.4999999999999996e-01 1.8999999999999999e+00
    -9.4999999999999996e-01 1.8999999999999999e+00
    -9.4999999999999996e-01 1.8999999999999999e+00
    -9.4999999999999996e-01 1.8999999999999999e+00
    -9.4999999999999996e-01 1.8999999999999999e+00
    -9.4999999999999996e-01 1.8999999999999999e+00
    -9.4999999999999996e-01 1.8999999999999999e+00
    -9.4999999999999996e-01 1.8999999999999999e+00
    -9.4999999999999996e-01 1.8999999999999999e+00
    -9.4999999999999996e-01 1.8999999999999999e+00
    -9.4999999999999996e-01 1.8999999999999999e+00
    -9.4999999999999996e-01 1.8999999999999999e+00
    -9.4999999999999996e-01 1.8999999999999999e+00
    -9.4999999999999996e-01 1.8999999999999999e+00
    -9.4999999999999996e-01 1.8999999999999999e+00
    -9.4999999999999996e-01 1.8999999999999999e+00
    -9.4999999999999996e-01 1.8999999999999999e+00
    -9.4999999999999996e-01 1.8999999999999999e+00
    -9.4999999999999996e-01 1. 0. 1. 0. 1. 0. 1. 0. 1. 0. 1. 0.
    1.8999999999999999e+00 -9.4999999999999996e-01 1. 0. 1. 0. 1. 0.
    1.8999999999999999e+00 -9.4999999999999996e-01 1. 0. 1. 0.
    1.8999999999999999e+00 -9.4999999999999996e-01
    1.8999999999999999e+00 -9.4999999999999996e-01
    1.8999999999999999e+00 -9.4999999999999996e-01
    1.8999999999999999e+00 -9.4999999999999996e-01
    1.8999999999999999e+00 -9.4999999999999996e-01
    1.8999999999999999e+00 -9.4999999999999996e-01
    1.8999999999999999e+00 -9.4999999999999996e-01
    1.8999999999999999e+00 -9.4999999999999996e-01
    1.8999999999999999e+00 -9.4999999999999996e-01
    1.8999999999999999e+00 -9.4999999999999996e-01
    1.8999999999999999e+00 -9.4999999999999996e-01
    1.8999999999999999e+00 -9.4999999999999996e-01
    1.8999999999999999e+00 -9.4999999999999996e-01
    1.8999999999999999e+00 -9.4999999999999996e-01
    1.8999999999999999e+00 -9.4999999999999996e-01
    1.8999999999999999e+00 -9.4999999999999996e-01
    1.8999999999999999e+00 -9.4999999999999996e-01
    1.8999999999999999e+00 -9.4999999999999996e-01
    1.8999999999999999e+00 -9.4999999999999996e-01
    1.8999999999999999e+00 -9.4999999999999996e-01
    1.8999999999999999e+00 -9.4999999999999996e-01
    1.8999999999999999e+00 -9.4999999999999996e-01
    1.8999999999999999e+00 -9.4999999999999996e-01
    1.8999999999999999e+00 -9.4999999999999996e-01
    1.8999999999999999e+00 -9.4999999999999996e-01
    1.8999999999999999e+00 -9.4999999999999996e-01
    1.8999999999999999e+00 -9.4999999999999996e-01
    1.8999999999999999e+00 -9.4999999999999996e-01
    1.8999999999999999e+00 -9.4999999999999996e-01
    1.8999999999999999e+00 -9.4999999999999996e-01
    1.8999999999999999e+00 -9.4999999999999996e-01
    1.8999999999999999e+00 -9.4999999999999996e-01
    1.8999999999999999e+00 -9.4999999999999996e-01
    1.8999999999999999e+00 -9.4999999999999996e-01
    1.8999999999999999e+00 -9.4999999999999996e-01
    1.8999999999999999e+00 -9.4999999999999996e-01
    1.8999999999999999e+00 -9.4999999999999996e-01
    1.8999999999999999e+00 -9.4999999999999996e-01
    1.8999999999999999e+00 -9.4999999999999996e-01
    1.8999999999999999e+00 -9.4999999999999996e-01 1. 0.
    1.8999999999999999e+00 -9.4999999999999996e-01
    1.8999999999999999e+00 -9.4999999999999996e-01 1. 0. 1. 0.
    1.8999999999999999e+00 -9.4999999999999996e-01
    1.8999999999999999e+00 -9.4999999999999996e-01 1. 0. 1. 0. 1. 0.
    1.8999999999999999e+00 -9.4999999999999996e-01</inv_output_scale>
  <weights>
    <_>
      1.5069629344044184e+04 5.1670376974113141e+00
      -5.3753884406171721e+01 -3.4520941503678372e+01
      -4.7105125366937749e+01 3.1672148961200442e+01
      4.0006902201742562e+01 6.0882854340107826e+01
      -5.8522298209802528e+01 -5.3788983789445112e+01
      -2.3661471276213149e+01 -3.0413819164247048e+01
      3.3100652349436608e+01 -5.3070831859429987e+01
      -3.8296302581784488e+01 4.6613155872821771e+01
      -1.5717301587481550e+01 -5.0488215556807539e+01
      -5.6255543569518210e+01 -1.9961082929615795e+01
      -3.8083275204767240e+01 -7.2839193974155538e+00
      -1.3895122268712280e+01 -5.6964248759377929e+00
      -2.5353639961858676e+01 1.4374080919520116e+01
      1.0450383715871918e+00 3.7268874707101837e+01
      -2.9416523418686985e+01 7.0820482271261156e+01
      4.0606671740524988e+01 5.1188595465137983e+00
      -1.9532008820561061e-01 -6.5405001400249787e+01
      3.6838487273356861e+01 -5.9594467622896010e+00
      6.8088986303766301e+00 -2.2187390510718959e+01
      2.6956480979446258e+01 -2.8838046252905034e+01
      -6.2039960974171365e+01 1.3970750531891353e+01
      3.5241193859103184e+01 2.9795230509702364e+01
      2.0622536946190749e+01 -1.5825745960385358e+01
      1.4950555745332824e+01 4.0984515666749097e+01
      6.1534168635571994e+01 2.1422678719771085e+01
      -1.7288625022641483e+01 -4.3805729140742962e+01
      -4.4592813301861057e+01 -5.6469881006657239e+01
      5.0024343149959229e+01 -3.4431973153839223e+01
      3.8501574069866734e+01 -5.3240678465048013e+01
      -2.7348627391177832e+01 -2.8280950079312674e+01
      5.2769997712171559e+00 -2.3820440710486160e+01
      -3.0549551965986325e+01 -1.1126439566749260e+01
      -3.5885229263755527e+01 9.3121672618657154e+00
      -4.1148594424693265e+01 -3.5220301611487997e+01
      -4.1946488285550103e+01 7.1397451676873338e+00
      3.8717164470136488e+01 3.9148411240859033e+01
      -3.6753691230895164e+01 -3.9516010511766623e+01
      3.7472290434592615e+01 -2.2896997844056727e+01
      -7.3719939715861713e+01 1.9109165969810032e+01
      -2.4970714792583330e+01 -2.5675393460911028e+01
      -3.6570520652947756e+01 -2.6438616213315672e+01
      -4.7331318441602811e+01 4.1910465423835198e+01
      6.9263364764179045e+01 3.7834604082730465e+01
      5.9007062787230041e+01 2.1027481917167830e+01
      3.9637263241352862e+01 5.2614328841671295e+01
      -2.2944088944333156e+01 1.6870137143093288e+01
      -2.6992698377737714e+01 5.7197170246902289e+01
      4.6169602840848867e+01 1.8128625165008540e+01
      -6.0007516676495804e+01 2.5985689444668349e+01
      -3.2373702366457728e+01 -2.4054168561910060e+01
      -5.6242485649501290e+01 1.3155158639823778e+01
      3.6733522141880059e+01 -2.5753401043864461e+01
      5.4586174310225466e+01 1.8101272425559301e+01
      -2.5806653448248252e+01 -2.9546861068392776e+01
      1.9684451413073244e+01 -3.7070439752517792e+01
      4.7600393700499751e+01 -6.1048486778038551e+01
      -3.0932868426462576e+01 -2.4269861374921646e+01
      -3.9439512481051665e+01 -3.0816159638266349e+01
      3.7243867625374563e+01 3.8536278224913595e+01
      -1.3227239940514913e+01 7.1003076755446886e+00
      -3.9865103914212145e+00 -1.4966885473831448e+01
      -1.2354841894369232e+01 -1.1992428345950497e+01
      1.5280296390634417e+01 -6.3168936219199587e+01
      2.4248253073479095e+01 -5.5280895686663122e+01
      3.7413167603400638e+01 2.4878352623319824e+01
      -1.2233831437678528e+01 2.9044314833428682e+01
      4.4427297273051678e+01 -4.6197737426662513e+01
      3.3635221698595828e+01 8.8884478192042081e+01
      3.2011934366241327e+01 -2.3046444713014708e+01
      5.0246110194227562e+01 1.9584491366592626e+01
      -3.2110454487731040e+01 3.9055814110464311e+01
      -8.1948949544215104e+00 2.1630375714570093e+01
      1.4385222875423409e+01 3.4958640579138120e+01
      1.9186710312175144e+01 4.2101374380542303e+01
      -2.1369114502558912e+01 -3.2348476867735400e+01
      -1.1722885793346381e+04 -3.8360973614574363e+01
      5.5316071434238019e+01 1.0233828384912707e+01
      7.1675724386449460e+01 -4.8304981662497546e+01
      -3.2080385185849742e+01 -2.0438482672741330e+01
      5.2019600876896519e+01 3.8318021989927743e+01
      4.6227632695315151e+01 3.2546182032528705e+01
      -2.4529935782546595e+01 7.1743316324381041e+01
      3.1349482876916781e+01 -2.7374243367496515e+01
      2.4178709100588485e+01 4.0069585019781904e+01
      1.2205393732912439e+01 4.4174575468790138e+01
      1.8542469361634140e+01 -1.9507210356289477e+01
      8.8427255896147187e+01 -1.0473555397697698e+01
      1.4392826365165632e+01 -2.7270376889534592e+01
      -2.5742070731747798e+01 -5.0357682642210236e+01
      4.2960614426806600e+01 -4.8956563024662280e+01
      -2.6289071440184649e+01 -3.3180821264858103e+01
      -4.9269466938945186e+01 2.5914764776434765e+01
      -5.9748482079039213e+01 8.8403498946346531e+01
      -5.2100163496243219e+01 4.9771896121807309e+01
      -3.5118613087936652e+01 4.1803465523452999e+01
      3.5354862888747668e+01 -6.7085313904883378e+01
      -7.9107905236082530e+01 -2.4625479015733049e+01
      -2.4604896290822040e+01 1.4119243315610705e+01
      -2.2811568627622485e+01 -4.5278374499260394e+01
      -6.1744560930490515e+01 -5.7180502214179064e+01
      6.1778338069784994e+01 4.2225759155111511e+01
      4.2227678911748143e+01 7.6750887149530186e+01
      -3.0802558412019810e+01 1.3009118542134921e+01
      -3.4012313773112254e+01 3.3821679048414431e+01
      4.7201786764872253e+01 2.9231225434336089e+01
      -4.8662683627859231e+01 3.7797019400322498e+01
      5.6148738790282181e+01 6.0223158026913495e+01
      5.3051857590967309e+01 -5.5750812791192708e+01
      3.6986773566243059e+01 3.0696623021745697e+01
      9.5158008465110598e+01 5.3316485917167462e+00
      -4.6464012045056812e+01 -4.9143121033276344e+01
      2.3209281723892676e+01 6.3459567120816608e+01
      -3.5986266322750758e+01 6.5573361809377900e+01
      5.6664168634302492e+01 -4.3841506483045031e+01
      4.7401274030430002e+01 2.5798621588777007e+01
      4.2966429231326828e+01 7.8957218932991850e+01
      3.9901257080927834e+01 -2.5562027751619947e+01
      -4.5975010185312094e+01 -2.4197306683854059e+01
      -5.7967247895500833e+01 -2.4582528943351026e+01
      -5.6113885140739825e+01 -5.0875554040398136e+01
      8.9818645535532170e+01 -2.1671808618981650e+01
      4.8659401703296481e+01 -4.6417571371823556e+01
      -7.6994493559587298e+01 -3.4946887076351551e+01
      3.1566228586740870e+01 -5.3084295998762379e+01
      1.7962056009419378e+01 4.0086179621225980e+01
      6.5637588104456356e+01 -4.7232063946564722e+01
      -6.4651848401486333e+01 7.1380730043111299e+01
      -2.7300452393507225e+01 -1.4487906060708898e+01
      5.7653385238299023e+01 7.3566240409606920e+01
      -3.5042002916904764e+01 2.7427273722186275e+01
      -6.3685783850563830e+01 4.1678521534544238e+01
      3.4027257453166449e+01 1.7023155896099912e+01
      1.2153605200508743e+01 3.2763480830803509e+01
      -1.6823967926194719e+01 -8.7094521345259523e+01
      3.3626085949831875e+01 -5.3459419851933987e+01
      2.7596290553149434e+01 6.0596853297725993e+01
      4.0133661093380120e+01 2.8266653612010682e+01
      -4.2749706261106901e+01 3.8115482486562620e+01
      -3.6421525486576563e+01 5.5901934661727722e+01
      -5.7629470496641432e+01 -5.4022310217436704e+01
      -5.0278626779117452e+01 -3.4164836712584808e+01
      -5.3375455106354742e+01 3.4699493130277915e+01
      -3.2425273433134109e+01 -1.6539634824255934e+01
      -3.9020607243160136e+01 7.1121738741835401e+01
      -2.5249970127000321e+01 -9.5975716477260704e+00
      2.3376113569485430e+01 -2.9240664373650116e+01
      -2.8198866787134758e+01 -2.5545163873083752e+01
      9.6202390821653392e+00 -4.3662211222263792e+01
      -4.3528743589969636e+01 -3.0015881681148489e+01
      4.9189265120566674e+01 3.9115724666406429e+01
      7.8461892853307918e+03 -8.7305476649261955e+00
      2.6312842294882159e+01 2.2439084918311764e+01
      2.3876595101607954e+01 2.3292183609280266e+00
      -9.8777454147370225e+00 1.5411789578363864e+01
      -7.2730896328879968e+00 3.6613656787136662e+01
      -5.7491747254956813e+01 2.1360415211723423e+00
      3.0095152766199867e+01 -1.8992058317295040e+00
      3.3047759154698979e+00 -1.3046439124323983e+01
      1.1104427610775915e+01 -1.3255689419450837e+01
      1.1228757827105291e+01 8.6648045689983597e+00
      -2.1904227704789193e+01 -7.5808976986377239e+00
      -7.0821768678075099e+00 1.5379453812239129e+01
      9.1347747413788518e+00 1.1806410968038900e+01
      -4.9220296587514539e-01 2.0511532141502901e+01
      1.7635720823788798e+01 -2.2498548228618883e+01
      4.0878425822442237e+00 -1.1645789052850400e+01
      1.1520390617284670e+01 2.9302519332166906e+01
      1.7649828531493153e+01 2.6467183417454049e+01
      -7.9566110785591988e+00 4.7341126892076648e+00
      -9.1018853578374905e+00 1.3042838573923314e+01
      3.2306342264321401e+01 7.1134449765914374e+00
      -4.3470545193324002e+00 -3.2101422975630406e+01
      -4.5451169734477382e+01 -4.2605378484041205e+00
      -2.1532461403077946e+01 -4.4675861596103825e+00
      -1.9936230986371431e+01 -3.4014737684675339e+01
      -1.8127095482826554e+01 -2.0836721743382749e+00
      -7.6298808448561575e+00 1.6323310453184444e+01
      -3.8069174307743610e+00 4.7427821907591216e+01
      -2.1439008658456203e+01 6.1484723800399870e+00
      -1.2068136276411414e+01 2.8788902289207648e+01
      -1.4294383254266807e+01 2.4487485762603917e+01
      -2.5361247586420706e+01 -5.9762783366547789e-01
      -1.7260986837317311e+01 1.1946485266139501e+01
      1.6818474416422124e+01 1.6729313031639862e+01
      -1.3680226258513974e+01 1.5964863860004343e+01
      -1.4627927866560078e+01 -4.1978531162074635e+00
      1.0931916728122983e+01 8.0071942956597439e+00
      1.2520949463522225e+01 4.5662541287955172e+00
      3.0610981084245850e+01 -1.4376927696818624e+01
      3.3041388901285220e+00 1.7567712043244958e+00
      -2.3456117775946915e+01 -6.5929893569632370e+00
      2.1733082825403617e+01 -2.2335660204203460e+01
      2.5648625479363822e+01 -1.5014295961271825e+01
      -6.7628003762839821e+00 1.6625807225771560e+01
      -2.4234846564041266e+01 -1.2085365304089983e+01
      1.5591348972708840e+01 -9.8878883525914869e+00
      2.4149556736524026e+01 1.1546729599534000e+01
      1.5286209259365011e+01 5.5898850120129715e+01
      -8.9313382634456606e-01 -1.3479223595257128e+01
      3.5638225710178709e+01 -3.5650943479132944e+00
      1.9928641109452457e+01 7.9543871706221596e+00
      1.4735428077402470e+00 3.2568613175129684e+01
      -1.6295744998871076e+01 -1.8336295161317487e+01
      6.3609300880825073e+00 -2.3807902750925617e+01
      -3.4109105499633365e+00 -1.6269046258909362e-01
      -1.9313722218101571e+01 -5.8382035557129077e+00
      2.1833331368682312e+00 6.2894711038559512e+00
      3.1586743462763430e+01 6.4256588025372903e+00
      -2.2399598201595246e+01 -2.0465339736453640e+00
      2.4108350350519306e+01 7.0831932741393022e-01
      -4.8063633770162356e-01 1.0012778956662249e+01
      -9.7433848499958593e+00 2.6159094620346437e+01
      -2.6102216865398900e+00 3.1379845915305697e+01
      1.3561607736581990e+01 1.7925389486860269e+01
      1.2660817885051488e+01 3.0702084569894591e+01
      -3.7768586337389207e+00 -2.8067970987898918e+00
      -9.8952509597628868e+00 2.4594639640588976e+01
      -2.2831784956935135e+01 -3.8569256638882742e+01
      4.5534917690381178e+01 -6.0629581743249714e+00
      -1.2693149195465073e+01 -8.1400761242186359e+00
      1.2046858722731415e+01 -3.0134371546276299e+01
      -2.6128586828711672e+01 -1.9368590468940255e+01
      -7.9729193747568763e+00 -4.2083570392825656e+01
      -2.6684562382118486e+01 -1.5884886196529036e+01
      2.5466960299742500e+01 -6.2593886940908094e-01
      4.3614285615981307e+03 9.5257570083258827e+00
      8.0240530295386603e-01 -3.7196879272552170e+00
      2.6968660063236712e+01 4.6809507542618833e+00
      -8.3400583460513094e+00 -2.9045283957736356e+01
      -3.2856518288411625e+00 6.2869426169717961e+00
      3.1660684321001039e+01 4.2791210194587954e+00
      -2.2585273954262149e+01 2.5673424491785624e+01
      1.1225257803037248e+01 9.9730144138392234e+00
      7.6650251891914101e+00 -1.6911032963152739e+01
      4.5799007795472138e+00 -1.2262047620979507e+01
      2.9059456239393992e+01 -2.1365977826226858e+00
      3.8189992506154375e+00 6.9718786235504506e+00
      -1.0490035424791774e+01 -2.4648642789500634e+00
      -2.3060379508095089e+01 -1.6139144693138668e+01
      -1.2544565807380755e+01 -1.2681038396578129e+01
      -9.4847691415905200e-01 -5.2981332429023258e+00
      -5.1332534564710048e+00 1.7248596898712174e+00
      -3.6274285334222057e+01 -1.7542151755055708e+00
      2.6405044250066796e+00 -1.4850332711645336e+01
      2.0563259706589093e+01 -5.5810219297586219e+00
      -4.4608768663641003e+00 -7.8679812543279217e+00
      1.2174664263175549e+01 -1.3328867385044196e+01
      -1.4022101414917678e+00 2.5070828120882127e+00
      3.4969195969359772e+00 -8.8013011894711202e+00
      -1.7368288154664388e+01 1.2334434606716089e+00
      5.6818021774053209e+00 3.4903241055051588e+01
      7.1141226875405197e+00 -4.7067374788453566e+00
      4.3920666386751810e+00 1.8629531310517507e+01
      -6.5325678435171062e+00 -2.1831892446320001e+01
      -1.3356462464274030e+01 5.0233518279931069e+00
      1.1111079580595346e+01 -1.5118620412393156e+01
      1.8885339518651744e+01 3.7808833993223018e+01
      3.2029334701641780e+01 -4.3509414124023431e+00
      6.3400314580094905e+00 -1.5455589266940882e+01
      -1.9866965659696653e+01 -2.7803873123617961e+01
      -1.8216893480237193e+01 -1.6653588199278195e+00
      5.0088930770515416e+00 2.6001632795395455e+01
      -1.1692111951202811e+01 8.4628418901533511e+00
      1.6088959055054790e+01 -1.5732189392826399e+01
      -7.5440624936092195e+00 7.0548824310401503e+00
      -1.1867536837738715e+01 3.0556204335721883e+01
      9.0525024426490770e+00 -3.7981050027034016e+00
      -1.3178632529860055e+01 -1.1363386265743082e-01
      -1.7343580676656050e+01 1.1851896560267612e+01
      7.9026042426547365e+00 -5.7061292450041794e+00
      -8.4136305886910083e+00 8.9348785830839994e-01
      -2.6807682034136196e+01 -1.6019020943388732e+01
      -8.9258614591542731e+00 -7.3649767609335033e+00
      3.1398030108002750e+01 1.5197810272532772e+00
      -2.2065278428024229e+01 -2.6619569342325583e+01
      1.0867663464394559e+01 -2.2768411461921694e+01
      -1.0208247185513121e+01 -1.1776685402313916e+01
      -1.2544492245304635e+00 1.3615650303411650e+01
      2.9989203663636840e+01 2.0584813442203949e+01
      2.2314835936948278e+01 2.8440642411413343e+01
      4.5364610598325026e+00 1.5622911181059509e+01
      1.3966727280931222e+01 -4.3052417628732309e+00
      -2.0365849555260585e+01 3.1831184833893853e+00
      -9.6661366246201297e+00 -5.3417144850239469e+00
      -1.6415576412652722e+01 -8.1962538351767389e+00
      -7.1487963332064970e+00 -2.1774831933111589e+01
      2.2901727077985608e+01 -2.8850442617803522e+00
      -3.3176497292242062e+00 1.4534781689221990e+01
      -6.7971289325446511e+00 9.6625146107345312e+00
      -1.5040036958732738e+01 -1.3818711815957810e+01
      4.3688957555095426e-01 6.0937220321612546e+00
      -2.7201444764510168e+01 -4.1534833618265541e+00
      1.4728344005526044e+00 -1.3615282190257766e+01
      -5.2383544351072500e+00 4.8493289517753944e+00
      -2.2983819414050121e+01 -1.0703847996427973e+00
      8.6276378087795341e-02 -8.8832198202279784e+00
      -1.3322243048411002e-02 2.7478040283953508e+01
      2.1877405687965275e+01 -8.7553839045964406e+00
      1.5562561879561880e+00 -2.5075256171265192e+01
      -4.3372161265965783e+00 -1.1887628136561084e+00
      3.6099943880543224e+03 -5.4474382968964665e+00
      8.2169815570077667e+00 -3.8407226864204517e+01
      -4.1071757300072997e+00 -3.0722635716672990e+01
      2.5703474050294243e+01 -4.4990766744629639e+01
      6.1168516107208570e-01 6.9496677365997073e+00
      -4.8415976606928322e+00 2.0446755903042839e+00
      -6.3271812415155097e+01 -7.6215733263419052e+00
      -9.2787446639133520e-01 -1.2248576642390052e+01
      1.0614249045855817e+00 1.9258480356720710e+01
      -3.1236103722258477e+01 -1.2189011031284336e+01
      -2.2935478895621678e+01 -1.7367229462595009e+01
      1.0453576683598389e+01 9.5181621606341977e+00
      -1.0954797528527486e+01 1.0053937434595426e+01
      -2.6996396220727370e+01 -1.9769863345647551e+01
      -1.2826573603747015e+01 -9.7266017337508470e-01
      -1.1688981227721462e+00 -1.1574193657649433e+01
      2.1137157582531479e+01 2.6019069428893284e+00
      2.3033779301688643e+01 -1.8626169177116147e+01
      -4.9384394244769680e+00 -6.6516152340657673e+00
      1.1052345936646045e+01 2.2884303239632015e+01
      -1.3272148341224844e+01 -1.6236375257886916e+01
      1.7874026505505292e+00 1.8910573183161503e+01
      -1.3154974014691161e+01 -3.0148841090554734e+00
      4.2274292351972889e+01 -1.8206715558574462e+01
      -2.3032906353630487e+01 2.5631179913074320e+01
      2.2718360432089932e+00 -1.4456559066030479e+01
      4.2009365293596090e+01 2.2460030279183361e+01
      -1.1947424755420924e+01 -8.6219638889561268e-01
      2.3933667603976783e+01 -5.0850260179401978e+00
      -3.4470391649549637e-01 3.7677918651308528e-01
      -1.9069431512300643e+00 -5.4167022487882237e+00
      5.4765608648548273e+01 -6.8747759766512333e+00
      -1.9963882218599593e+01 3.6117414806740932e+01
      1.0755217181003166e+01 -1.5168276419383208e+01
      -2.2504838805163153e+01 8.5525808657926188e+00
      -3.2445334053756149e+01 2.7234932787953937e+01
      3.8161516925193560e+01 7.4134162519208913e-01
      -3.7099407383856831e-01 1.4757312614148157e+01
      -2.8779332744730922e+01 1.4277648733372862e+01
      1.6267546122426698e+01 -1.5454337645375915e+00
      9.2204248343077051e+00 -3.5279268364650180e+00
      3.2745345998133089e+01 -1.0177530348345602e+01
      1.0809499324745969e+01 3.2143104735666441e+01
      -6.7561526787188395e+00 -1.6875990626344286e+01
      1.8645201257807148e-01 -7.7446810999413680e+00
      -1.9064617495669996e+01 1.3402649457011300e+00
      -1.2328742590194523e+01 -2.4704275668308546e+00
      1.4403841389523027e+01 -2.6511915867312126e+01
      3.0808096127637775e+01 -1.1653271981605965e+01
      -8.1554067527358338e+00 -2.5680508081486092e+01
      1.5154700930396565e+01 3.3732252002507821e+01
      -3.4273921133481615e+01 2.3195534245514086e+01
      -2.0235333465740680e+01 6.1602975766835746e+00
      4.0248246838253268e+00 4.9104082869939196e+00
      -7.3897034370295014e+00 2.6100366824839224e+01
      6.2315411501708242e+00 -1.1833208678325974e+01
      4.0835755473684941e+01 -2.2922242306910348e+00
      -2.0888946765981817e+01 9.6490206506576577e+00
      3.7658811676176434e+01 1.3079213128832221e+01
      -1.8998924358299018e+01 -3.3580340533639599e+00
      5.8971784825275462e+00 1.3942229955801352e+01
      3.3635621519800239e+01 1.4354211146193576e+01
      -3.0087637163116042e+01 -3.7899995591460709e+01
      5.3041169990168124e-01 -9.2791919460097283e+00
      -8.8260750642139563e+00 3.1970571701300504e+01
      2.2932680029573966e+01 -1.2240663756827045e+01
      8.2056771143312162e+00 -2.2595392838433202e+01
      5.2406791940765194e+00 3.5014171309396978e+01
      -1.2174402587059815e+01 -3.6100267881210009e+01
      1.3369939916075385e+01 1.3384369375303500e+01
      -5.9049123795779677e+00 -1.0053874351684653e+01
      -3.3900776382043376e+00 -7.9649210398129453e+00
      2.4140318778711066e+01 -9.9667534187400886e+00
      -9.4672962197251760e+00 -2.1622970800890400e+00
      -2.2941897609669195e+00 5.0053269951005275e+00
      9.6466559590821055e+02 -1.2218336030374601e+01
      1.2932387024310957e+01 7.9338623813153486e+00
      -4.9865639016872854e-02 -1.5115891323943302e+01
      4.4787981374233867e+00 -7.3390240698465590e+00
      6.3009593278601992e+00 2.0542096253093014e+01
      -8.1436873064522679e+00 2.0785521798288450e+01
      -1.9813572202972839e+01 -9.8955542973807038e+00
      1.5918604893944963e+01 4.3959303671591341e+00
      7.9154141623254386e+00 2.1551558421302289e+01
      -1.3373847943001234e+01 -1.6857978128505891e+01
      -6.9758578139957095e+00 -3.6297709554794857e+01
      1.6631514396480668e+01 2.8565102735897692e+00
      -5.5089755092960209e+00 8.1641746107294733e+00
      -1.2386214061147907e+01 -4.2817227401720501e+01
      -8.6708948075884109e+00 -4.4602976315673901e+00
      1.4675034029464165e+00 2.3963833739353446e+00
      -9.6927283179271555e+00 1.6169524776699145e+01
      1.0361232601269238e+01 -3.4320885602213160e+01
      9.7193792179680862e+00 -7.0963551116616355e+00
      1.2161184918635866e-01 3.2425114289787658e+01
      1.3997523444090245e+01 -8.5722677839359598e+00
      -1.3172705431559331e+01 -1.1664254972015746e+01
      -2.1665213002287285e+01 -5.7266725870602064e+00
      -4.7847078789411706e+00 -1.0016942410919519e+01
      -2.9779523622421269e+01 6.3732368096080871e-01
      1.5440210250977639e+01 5.1963844918715605e+00
      -4.2636645935575528e+00 -1.0006149491782423e+01
      -3.4037997555063576e+01 2.5331500016612065e+01
      1.4939135477626643e+01 -2.3881494465702668e+00
      2.7060873652584657e+01 1.1128210711236653e+01
      2.8281810943003398e+00 3.3834214267821601e+00
      -3.3544885893233619e+01 -2.5158365858809447e+01
      1.7898024155825048e+01 -5.9111971246165238e+00
      1.0242484335845980e+01 -1.9218024370178973e+01
      2.9806636650388334e+01 -6.8406793759336972e+00
      -1.0961303038552296e+01 -3.2687247089267416e+01
      4.6299009397212771e+01 -5.6866961448487254e+00
      -8.6434867034691951e+00 1.6139285256212258e+01
      -1.7849290321455680e+01 -1.9768856665319085e+01
      1.3741047593641593e+01 -1.1367547201468604e+00
      5.9793977694388492e+00 1.3786050009917311e+01
      -7.4103017704293856e+00 -3.1332009794227481e+01
      -6.0711237320692382e+00 -1.3548277285555855e+01
      -4.9485102360532647e+00 -1.6531396325097258e+01
      -1.1006415307898028e+01 -5.1667969491351373e+00
      -1.4212546988206745e+01 -1.3815786398976968e+01
      2.7586673705438565e+00 4.6384654546287285e-01
      1.1422910564340345e+01 -1.9417340342911295e+01
      -2.8356372475717798e+01 -2.0026488178087202e+01
      2.5042995801126221e+01 1.7557389068814519e+01
      -8.8274582076321799e+00 2.6626104580032067e+01
      4.1475638105325663e+00 -1.2410523279843170e+01
      -2.7940328227229969e+01 1.6880789555682165e+00
      -1.4051407529857427e+01 2.9269091690914038e+00
      6.5411766964070672e-01 -6.1518821443089546e+00
      7.5893774095584048e+00 2.1181134506979060e+01
      2.7247573982973048e+01 1.2842842572129349e+01
      1.4285245366564046e+01 -1.7650176144708460e+01
      1.4516140925541000e+01 -1.5581595431671646e+01
      6.7311848044699465e+00 2.3220634775880171e+01
      2.6640468844985982e-01 -1.8069561652824550e+01
      2.7562486798991516e-02 1.0088959226954517e+01
      -1.3406609271613640e+01 9.1787838059129925e+00
      4.2294169201661963e-01 -1.8274112651993661e+01
      -2.7280892621741081e+01 1.0509005980914038e+01
      -1.2580774472571452e+01 -1.1710906977696409e+01
      -3.2174434695447243e+00 1.0903455706900750e+01
      -2.1942530540253689e+01 3.6553592012647376e+00
      -2.3350310618983865e+01 4.4452970541714469e+00
      -3.8982704672267396e+00 2.1946721746827116e+00
      2.3758822611762955e+01 -1.4041001389972909e+00
      -2.2752699049038508e+01 -2.8508560731255499e+00
      3.3747432078786521e+00 1.9920341020989252e+01
      2.8662660880136310e+00 1.3145237836539712e+00
      -1.1207115755256446e+01 2.8634996695677146e+00
      -6.4216955328740232e+03 -3.8027519099307888e+01
      9.5963435837872737e+00 1.8277138878195395e+01
      2.6807275763158877e+01 -1.2164303342445953e+01
      -6.2515367082194491e+00 -6.0466134562978574e+01
      5.0867280776676672e+01 -3.8965596558191629e+00
      6.8396993177409257e+01 3.7532245031117917e+01
      -8.9247715335913213e+01 4.8594318376891287e+01
      5.5367563413168767e+01 -5.3543510305723387e+01
      3.4772141322721794e+01 4.6893286132910248e+01
      2.7705378196722499e+01 -1.8507791709318042e+01
      3.0193101001846276e+01 7.2210316994764749e+00
      4.1251120926393384e+01 -2.5253062289384719e+01
      4.7343769842270271e+00 -6.3754778942020316e+01
      -2.9694271857399945e+00 -2.7351929578152284e+01
      2.0555269407050190e+01 -1.2976858388142751e+00
      -3.8295225233637944e+00 -6.9279596927801080e+01
      -3.8609492810060431e+01 -9.9989737462729711e-01
      -1.3832210184396391e+01 4.5596796976170957e+01
      -2.8186114144881330e-01 7.8024764310225274e+00
      4.8772865850157734e+00 4.7321173729535488e+01
      8.5710921536463747e-01 -9.6592936898262955e+00
      -1.9934332527340814e+01 -5.1459261260346281e+01
      -8.4091835070290255e+00 9.4928949912490452e+00
      -2.0031476682438282e+01 -1.7414733418154626e+01
      1.0892041837552600e+01 -3.6366472188401545e+01
      5.1664584958708325e+01 1.5717892291115220e+01
      3.2012259515132961e+01 2.2375019810420440e+01
      -6.8223671613678562e+01 3.4838675879515876e+01
      -1.7166018007618305e+01 -5.9526255503770180e+00
      2.4651512090558860e+01 2.1414155644854297e+01
      -3.6795349026381615e+01 6.1294074733463816e+01
      8.6013174759358051e+01 -1.5769435372599183e+01
      2.4741824259429070e+01 -2.2039246202937779e+01
      1.8796870476529531e+01 2.9285947176640327e+01
      3.2033714714507639e+01 -1.8480980684315679e+01
      -8.2361522923102477e+00 9.5237089581113576e-01
      -3.6900170123117877e+00 2.7911242812256933e+01
      -4.3065982083161785e+01 3.2920610159053382e+01
      1.9171265196795250e+01 7.7164290487272229e+00
      1.1560224066998193e+01 1.7484899354255106e+01
      1.5483598770777142e+01 1.9475302974700220e+01
      2.8252680764851977e+01 -2.5682969974229625e+01
      -1.4025760599490733e+00 5.4490588413486742e+00
      -2.6876562296132501e+01 -4.6335221483773807e+00
      -5.7835661369313357e+01 -8.4004163116351378e+01
      3.5910575199242807e+01 -3.1459522877842566e+01
      4.5960111556473557e+01 -5.4975963708358769e+01
      -3.0040820128164810e+01 -1.4978679827396043e+01
      -4.7889731869807415e+00 6.6360573871071438e+00
      3.7377451922669394e+01 3.1352521441281731e+01
      1.9124649661417323e+00 -1.3087322225034796e+01
      -7.5470678183877231e+00 -6.6086184878893626e+00
      -1.7131834798212960e+01 -2.1031723442954029e+01
      4.9722694516312856e+01 -5.4213108480460326e+00
      -2.7147106108305113e+01 -4.1361405035030036e-01
      -4.2899151595657532e+00 -7.2256241613653565e+00
      -5.0981716303630922e+00 7.5470832200638753e+00
      1.6007188238626743e+01 4.2120260908040052e+01
      -3.1712692748699169e+01 -7.4180717022474090e+00
      -8.3698619209652900e+00 -4.6642538353765033e+01
      5.4090421392762394e+01 2.1216291041679256e+01
      2.2640280951166645e+01 2.2031327420985178e+01
      -2.3741124006707253e+00 1.9505309744407008e+01
      -1.4416732559910610e+01 1.4095716512007353e+01
      -7.0648481665699956e+00 -3.7342270842900311e+00
      -1.4703047857088022e+01 9.9311618009687823e+00
      -5.3038102753901974e+01 2.8689382198862337e+01
      -1.9914471085915935e+01 -3.6910496102192468e+01
      -1.9947718340049882e+01 3.0130473391991131e+01
      -4.7679820398295114e+01 -2.8366953161483252e+01
      3.0365522270355186e+01 -4.6652595540148134e+01
      5.5325661474608507e+00 -2.1323936902300940e+01
      -1.3822260161453602e+01 -6.9676944694391940e+00
      -2.9667388059935988e+01 -2.8896801559684246e+01
      9.8553249047614216e+01 3.4920310218924229e+01
      1.2359463006503820e+04 2.9434777028134469e+01
      -1.6783185310402729e+01 -4.2895906813553232e+01
      -9.3781118818831377e+00 6.5430467128574241e+00
      3.3985376231716288e+01 2.2082309917288711e+01
      -2.6253875297462031e+01 -3.4709480049233434e+00
      -2.1252896776422517e+01 -3.4950832783872407e+01
      -2.8856356228784044e+01 -1.4757111888234860e+01
      -1.4129301142175228e+01 5.3492238099107459e+00
      -3.9327568504653215e+01 -2.7015275783297767e+01
      -8.3474739545305905e+00 -1.0448151980036092e+01
      -2.1945177554029218e+01 8.4822982873884012e+00
      -3.9469780195899936e+01 4.3945727197002171e+01
      -5.9034343256795410e+00 1.3123536915922909e+01
      -3.7002793909436399e+01 -6.0459668263759987e+00
      -2.2815221484435668e+01 -1.2662378348758670e+01
      3.0388534176149470e+01 -8.0588842672526404e+00
      4.2196997588935865e+01 -1.3321559668760075e+01
      1.7736337145671627e+01 -4.0208962530778640e+00
      2.3653462005552339e+00 -1.8271208695927989e+01
      1.0636131243297948e+01 -2.8840384393441891e+01
      -1.0558655550747405e+01 -4.4712451560095084e-01
      1.2786196269654249e+01 3.0169606759446363e+01
      2.2544786361928075e+01 -1.0206301730865773e+01
      1.1999855276238602e+01 3.0734251501524387e+01
      2.5066186794104905e+01 1.5479261224564496e+00
      2.1226300857443459e+01 3.9025097223244001e+00
      -2.8373457162830970e+01 -5.6300177316771581e+01
      9.2587503533779791e-01 -2.2378379245580170e+01
      7.8078781354530404e+00 -3.0465632815184627e+00
      1.9925890877387250e+01 -2.0322114922139047e+01
      2.2265328846928558e+01 -4.7177254886366047e+00
      -1.3172805369473409e+01 -4.5765792344425741e+01
      -2.2240282243726440e+01 2.3665554910988703e+01
      -4.6708831028205317e+01 -1.9869025159731704e+00
      -1.4014949867536181e+01 1.4971046405068027e+01
      3.7207190718501160e+01 2.2676371422199844e+00
      -2.1410743745530151e+01 -1.6814300431114395e-02
      2.1553423714563699e+01 1.4151866712979826e+01
      -1.2272813265140538e+01 3.4987900149399351e+01
      -1.8595537316486428e+01 -1.7494116624846825e+01
      -4.0301812530666773e+01 -2.9373681664928682e+01
      -3.5321928675068087e+01 1.1831313904017300e+01
      3.0839300236364839e+01 2.7322225018149275e+01
      3.4002990257886552e+01 3.1977790017205301e+01
      2.4555893618264690e+01 1.5129365771905112e+01
      -2.4945273746057904e+01 2.3753043029068611e+01
      -1.8785542178442231e+01 1.6915135461160538e+01
      3.6425787977398933e+01 2.2382089973665767e+01
      -4.1447366486280835e+01 4.2385230160242457e+01
      -2.9640310656833869e+01 -2.2870099270327017e+01
      -3.5540698887449309e+01 6.5118170934749759e+00
      1.6934037388120895e+01 -8.6169596499901502e+00
      -1.0697239593074901e+01 5.1055713018252064e+01
      -2.8789409546266409e+01 -9.7113064523341261e+00
      4.5016695170743724e+01 -1.7941583488157629e+01
      4.3450307762421531e+01 -1.3007339775750028e+01
      -1.7289759065533396e+01 -1.7124152941180846e+01
      -3.6006671042380070e+01 -4.4344356536658687e+01
      6.5172561250307881e+00 2.5217273430914098e+01
      3.3611234070466489e+00 6.3100316752855157e+01
      -3.0240146947166537e+01 -1.5252390001846873e+01
      -1.0702900135114794e+01 -2.2719996973947779e+01
      2.9236318362063013e+01 -3.1080864145587231e+01
      1.4010892332070886e+01 -4.4610971830615476e+01
      2.5910862834116532e+01 -1.2645243519424637e+01
      3.8945854479259367e+01 2.8106690549345970e+01
      -5.4363947721962367e+00 -2.1571826724226845e+01
      -1.0954363299544321e+01 1.9298201134609648e+01
      6.6137401973245158e+00 -5.6149484405448140e+00
      -2.0157464414400618e+01 4.2416086694876363e+01
      -3.6118357289579102e+01 1.7613590335118992e+01
      1.5986897707060166e+01 2.1488496243158060e+01
      2.5877050687173590e+01 2.0962139750597451e+01
      2.9027352506831718e+01 2.5944119852565855e+01
      -4.4493979306351655e+01 -1.0020262802204943e+01
      1.0409075110578469e+04 1.1246953537764581e+01
      -1.1591289604389001e+00 -2.1248308421716295e+01
      3.5675555845131690e+00 -1.2417208219057935e+01
      -1.8640874714147195e+01 -1.8650303090263066e+01
      -2.5187551275164886e+01 -3.7562462174302183e+01
      -2.1983674630366759e-01 -1.7992895119859664e+01
      9.7145094769489155e+00 -3.4872330988732649e+01
      8.2159021789792490e+00 -3.7180939469821110e+00
      1.1898571344294635e-01 -2.0471237526242948e+01
      -5.1997337896012601e+00 1.6680268405771322e+01
      -1.5871790974648594e+01 1.7602129267385315e+01
      -2.4317990077234366e+01 -7.7502709505925438e+00
      -9.1844599917786596e+00 -3.8570044398296766e+00
      -6.7589295516539298e+00 -1.0045740812618517e+01
      -1.4739366392369110e+01 2.4776769613010657e+01
      -1.6104470309587988e+01 -2.4956380483101590e-01
      -7.0737881033748273e+00 2.7558058276814201e+01
      3.3485277837742061e+01 -1.9595150757988037e+01
      4.7844683110658188e+00 -1.4755841026844887e+01
      -1.6378219618573191e+01 -1.0646133235397938e+01
      -1.9177453700088268e+01 1.8782539474201251e+01
      6.1028741846974404e+00 -2.2261779202961957e+01
      1.3305015436686739e+01 -7.9779260946361159e+00
      -2.2084686009356329e+01 -2.4155919072648199e+01
      4.3205781064900670e+01 -1.1241150596447005e+01
      -1.5892638523754807e+00 -1.7214714486740004e+01
      1.3378660910984127e+01 -2.5676323232643057e+01
      5.4711395948172886e+01 2.3293405041897486e+01
      4.2916426760844537e+00 -2.2422181942557877e+00
      -8.4088157934151688e+00 -2.5123354345076397e+01
      6.1946909188383863e+00 -2.8270706380026173e+01
      -2.8911726577268638e+01 -2.7570251940931327e+00
      2.1420640117434528e+00 -2.6561737302169135e+01
      -2.9781930681713284e+01 -2.6593948191127712e+01
      -5.7198085008213731e+01 -1.7321442687790287e+00
      3.1422298624441545e+01 6.4394430605041777e+01
      9.1245813339505375e+00 -1.2559912254841850e+01
      -1.0489133894991983e+01 -1.3378481317529003e+01
      1.6617600859408990e+00 -4.3686841819465423e+00
      7.4053675775524450e+00 1.5506611039342976e+01
      -2.7855673650523155e+01 -1.6168043131434651e+01
      -7.3245833649029910e+00 1.3057112828872656e+01
      2.6726510513356416e+00 2.3137897157168151e+01
      4.2348128695803382e+00 -6.2792584349148886e+00
      -1.3313579845326899e+01 3.0630904198652502e+01
      -3.3689281328984315e+01 1.5676680745159057e+01
      6.3181006029419562e-01 9.1052844526436765e+00
      8.6865422651587600e+00 -2.4432039963472620e+00
      2.5407036699251961e+01 -4.8105266381835410e+00
      6.0570395848658727e+00 -1.1437368488168046e+01
      -1.6461876824754974e+01 -1.4078082334918177e+01
      1.6388604216144135e+01 2.5684843948683081e+01
      6.7008462961671910e+01 1.1861463154480090e+01
      2.0140005921902542e+01 4.3513795251916846e+01
      3.2771236122381673e+01 -5.4531954630243118e-01
      -2.2984684639469577e+01 3.3935934102589043e+00
      -7.3160466357136160e+00 -8.1148178654329222e+00
      8.3432449430103972e+00 1.3740380379132747e+01
      1.3893830923311206e+00 -1.5481921082173407e+01
      1.1070305928668027e+01 2.4172725082394731e+01
      -8.8986691885627600e+00 -2.2053202977833738e+01
      1.2673139127503568e+00 1.0411134910972097e+01
      2.2272458346174298e-01 -7.5498489374722171e+00
      2.0474322186244297e+01 1.4234751103193251e+00
      2.0709229584346790e+01 5.2158501549178231e+00
      -1.2413828162159266e+00 3.6168225106409508e+00
      -5.6369716300992789e-01 -8.0667827477855919e-02
      -1.3294457922346702e+01 1.2589366399274891e+01
      2.0630968132682487e+01 1.4242557641730818e+00
      2.0510438514035894e+01 -1.1688632397680063e+01
      -1.1837391458830345e+01 1.4169165325609908e+01
      -2.2248247700245983e+01 2.2751286699474520e+01
      1.1138980619968059e+01 3.9041876793892037e+01
      -1.7782267776850931e+00 -9.7736955357269419e+00
      -6.5500086200966603e+00 -5.4561087144225286e+00
      -5.3209978793576629e+03 -1.4552382850888188e+01
      -6.0970290614035871e+00 1.4763525497022369e+01
      -2.4131270465441620e+01 -4.7799074456747874e+01
      -1.6277823794296104e+01 5.2671602261354593e+01
      -4.9016954021726740e+00 -3.1654495769154931e+01
      -1.4012704928904826e+01 -2.9932644993970424e+01
      2.1200550617930819e+01 1.0701362772689734e+01
      4.6501876398634279e+00 -2.6104717898162608e+01
      4.3382976025539087e+01 1.0519837336622242e+00
      1.7262186588660299e+01 3.4088205679975339e+01
      -3.1797401780145837e+01 1.5754493589609330e+01
      -2.3118251594431072e+01 -2.4230329617870240e+01
      8.5081064068349601e+00 -1.4941021219281339e+01
      -3.0814989580504879e+01 2.1610567628764525e+01
      -1.7843933939080323e+01 -1.6800094611438329e+01
      -2.6117515286652726e+01 2.1810882334427511e+01
      8.2215877478909558e+00 -1.6725942109872134e+00
      -1.7181810121044826e+01 1.2939315056971440e+01
      -1.0016428786127399e+01 9.8455698084059087e+00
      -8.5406595901828695e+00 2.7294899536690124e+01
      -2.9695525446925832e+00 -1.8376415506669687e+01
      1.6598103960843865e+01 -1.2250239665975393e+01
      1.1466060691793853e+00 1.0397338644321017e+00
      -8.1879787413948524e+00 4.0579020337788938e+00
      -3.3143555038031096e+01 3.4715934521760659e+01
      -1.7124192575952080e+01 9.0445121543834865e+00
      3.8340690414817672e+01 2.0364586311837961e+01
      -9.5613438864377231e-02 -3.6401168308625763e+01
      -1.9540358196151256e+01 1.3623298484294729e+01
      2.1635915462724011e+01 1.6821203996455150e+01
      -1.8225752916935164e+01 5.2942969817067986e+00
      -3.9542833590547066e+00 2.9318491043403374e+00
      1.0767721565635522e+00 -2.6411816326096300e+00
      1.9308452872540336e+01 1.7401027044958362e+01
      1.4838200326110422e+00 6.7569937646253180e+01
      -9.8301185597537284e+00 1.0645956833562783e+01
      1.3952178112324845e+01 1.4613946783810514e+01
      1.9200057781079177e+01 3.1682263722595634e+00
      2.3927750538919661e+01 -9.8997049704877185e+00
      1.9806450857140078e+01 2.1088295749536996e+01
      2.0988369098831260e+01 -1.1313773207352607e+01
      1.9097801490653811e+01 1.9515635673820270e+01
      1.2798577427073489e+01 1.7078789249604473e+01
      -1.9849499257393006e+01 -1.6231236864646579e+01
      3.7712295447982562e+00 3.0761779948559229e+00
      9.7548241679543448e+00 -9.5924422780940350e+00
      -1.2345448199163782e+00 1.0125110436431713e+01
      7.0024644030560754e+00 -3.4131812693002985e+01
      1.7003212477218892e+01 -1.7646779076198172e+01
      -1.8439115448269384e+01 3.5745803978364479e+00
      7.2218361126957102e+00 -2.7875941364014611e+01
      -3.8168756334578774e+01 3.0925771786987504e+01
      -6.1770617736029687e-01 8.4169126217345767e+00
      1.7968581598384343e+01 9.2116943290120830e+00
      1.9772597136839984e+01 -2.3484674135536711e+01
      1.9158404746952218e+01 1.0918540249787014e+01
      7.9828453738334337e+00 -2.4591190050189300e+00
      1.7920252828039942e+01 9.4846545591792708e+00
      -1.0754879859686698e+01 2.1173183827124312e+01
      -3.3600846462076759e+00 -3.4929029560990661e+00
      -3.1241574079074702e+01 4.1147867652623136e+00
      1.6880176798787947e+01 9.7619433547233605e+00
      -1.6967567070718768e+01 7.9134167809308185e+00
      -2.8301790607521418e+00 -2.2143031055059112e+01
      -2.1703687026247803e+01 -1.1706097292514645e+01
      1.9336781695998248e+01 -1.7893440545317167e+00
      3.6579599906389930e+00 8.7601638873326717e+00
      -3.0523130599869503e+01 -3.0300905699318278e+01
      -1.9150564120077047e+00 -1.0092721862035569e+01
      1.5837012901756342e+01 1.2530812408261385e+01
      2.2934521871239028e+01 1.4301722946603922e+01
      6.8308149115145023e+00 -2.5878477740512505e+01
      -6.3037922371793176e+00 -1.8558544492798141e+01
      1.4126172028636013e+00 -1.9075244396661439e+01
      -2.1397093545872430e+01 -9.2649479031095581e+00
      -2.8971335477641555e+03 -2.8997910147461532e+01
      3.5108657850638498e+00 3.3647726690101303e+00
      -4.9840003144107525e+00 8.1117334175774722e+00
      1.7156849447817155e+01 -1.0925797666026980e+01
      1.0747935370571320e+00 7.2114624778359824e+00
      8.9588965157456038e+00 -6.4902515227698183e+00
      -1.3029891793354151e+01 -8.8827608990797753e+00
      -8.0790844651324836e+00 -3.7623851943691662e+01
      2.8269690742292482e+01 7.8459797611929538e-01
      1.5374191229680070e+00 4.9328904468437180e+00
      -1.6877031987687449e+01 -9.0347456717114749e+00
      -2.1482428408009319e+01 -1.7839526775961108e+01
      1.2135943536617194e+01 1.8504110835165857e+01
      -1.3710368207887795e+00 -3.6096835945722908e+01
      1.3414021188298753e+01 -4.1715040263921042e+00
      -2.5119168663127446e+01 -1.7440879850483590e+01
      4.2428167523219635e+01 1.0695520085025411e+01
      -1.4419705768828708e+01 1.3757954155608912e+01
      2.3957757519623566e+01 3.4231747417846488e+00
      2.1942945025036828e+01 8.5563278687460009e+00
      2.2067876549959379e+01 8.4250452767557178e+00
      -1.4939888565875156e+01 -1.7427960555769261e+01
      -3.6120582172647029e+00 5.1148305541177495e+00
      -3.2791001160397228e+00 1.7069926045196723e+01
      -2.3963708227554776e+00 3.5159239820817419e+01
      -2.8876372448790808e+00 9.7026216031968353e+00
      1.6515595022856587e+01 -1.7057382769802494e+01
      6.7642161931617855e+00 1.8334366237950395e+01
      -1.2448072447061540e+01 1.7930903523947979e+00
      2.9546862351326041e+01 -2.3711056111596013e-01
      1.8833897666455751e+01 -9.0016910385107940e-01
      1.1636813588466236e+01 -1.7660467660091989e+01
      1.1539076392235096e+01 -1.3024466535414300e+01
      2.6593405048791901e+01 4.7066372387136298e+01
      4.6653773545702037e+00 1.1925175195163045e+00
      -2.1651316071159057e+00 -1.7018057408842285e+01
      -1.2395834898323777e+01 4.0833760641469176e+01
      -3.2536546873593197e+00 6.5474924503419372e+00
      3.3948977820335742e+01 -2.8545308943669166e+01
      1.2121276862779739e+01 6.4258860783090368e+00
      2.8443792447615643e+01 2.4933825875735820e+01
      -8.1886632421486798e+00 -2.1935713113733858e+01
      -1.6399866152013622e+01 -2.0623216649026954e+01
      2.5357962023187981e+00 -3.7510045197843089e+00
      1.5906882196665642e+01 -2.3637317088348283e+01
      -2.5453611158882417e+01 5.9403257424807725e+00
      1.5722886072396271e+01 -3.7990414798190812e+00
      -2.7308906738321078e+01 -2.8616742819754222e+01
      3.4128298070310095e+01 -3.6562937782135457e+01
      6.4977733047894432e+01 1.3815392516685039e+01
      7.3248715358418659e+00 1.6661344652457419e+01
      2.0499218829166139e+01 -2.3703117460245022e+00
      -2.8539052079831020e+00 -2.7231985836973433e+01
      5.8391528449939223e+00 -1.5017395545760442e+01
      -1.3735388557224661e+00 6.1699540991953334e+00
      -5.1897251587254438e+01 4.2475645525859500e+00
      2.0696084163752609e+01 2.3924209018031355e+01
      1.1715406884041792e+01 -1.1797611218720787e+01
      6.9558284700468631e+00 -3.1091547142221408e+01
      2.7544879310806788e+01 1.4838862766468299e+01
      9.1087528383253993e+00 -5.1406010551775037e+00
      2.9604837693808008e+01 1.0192739765196720e+01
      1.9226736672498919e+01 4.0957010292215896e+00
      -8.3415791705836604e+00 1.7532118988746703e+01
      8.6186533137454884e+00 -1.9430635541182660e+01
      1.3506997671854636e+01 -1.5923116381064037e+00
      6.6336707311508603e+00 -6.2749816537015262e+00
      -1.7779517086269585e+01 -5.2384502096961381e+00
      -3.5054137641792373e+01 1.6076120527685571e+01
      -1.2531936373900395e+01 -2.5974045114169144e+01
      1.5146117918866551e+01 -6.6588401710256555e+00
      1.5851039884338333e-01 -3.8568124243887645e+01
      -1.1968490633712726e+01 -2.6476688437817131e+01
      -2.2602326616230049e-02 -2.4081930790218230e+01
      1.3101387089825435e+01 -1.1666906025154610e+01
      4.0331166602723010e+02 -4.2916968694995328e+00
      -2.5815345213855238e+01 3.2754490899461248e+00
      -2.3760655131666706e+01 9.0485974715068558e+00
      2.0663300474776626e+01 7.0133372705083801e+00
      -2.7770743400537370e+01 -9.0995759340036941e-01
      -2.1302183421092170e+01 -5.3091354830249484e+00
      -3.8645903815001873e+01 -3.7618387340716637e+01
      -1.4083455189151040e+01 1.2324106543335649e+01
      1.0962770914782105e+00 1.0509423370571907e+01
      -1.2743821323746449e+01 2.4869440439463730e+00
      6.9141516033964203e+00 7.6215980915057262e+00
      1.7112826152072774e+01 2.1901841975840927e+01
      1.7798942987647639e+01 2.2436188169959269e+01
      -5.4358738474142648e+01 1.1714045692388448e+00
      -3.9146685573620204e+01 7.1280717343177606e+00
      -2.8002096916621744e+00 -1.5345149162236641e+01
      5.1094578324281290e+00 2.2940553772001562e+00
      -2.0341843561872569e+01 2.6816885017876775e+01
      -7.4496328873974846e+00 -4.6305624462444051e+01
      -4.8868326421686374e+00 8.2262118718012704e+00
      -1.3115352618769107e+00 4.4171752282245285e+00
      8.4316589714652874e+00 1.1452391882355515e+01
      -2.2354895962387795e+00 -1.3130380568952013e+01
      -2.6799402665030804e+01 -7.2110939106276506e+00
      4.2177068038459575e+00 -3.5340301606207142e+01
      1.0058611068143011e+00 -2.9399865378740188e+01
      -2.2383559976351943e+01 1.8930080946415195e+00
      1.0796527584119824e+01 9.8022350776272589e+00
      1.8728789565569016e+01 -9.2904198219521685e+00
      9.9665613924376970e+00 -8.0059048201533389e-01
      -4.7755635222797101e+00 -1.3377232527116533e+01
      -1.8039838186722498e+01 7.9157076296233777e+00
      -2.8799538161455789e+01 -5.2328761515286173e+00
      1.5057779243565815e+01 -4.3233605322209785e+00
      -2.8530790552421109e+01 1.6191255541708728e+01
      1.0879457751935508e+01 -1.9054469995375968e+01
      6.3803918595719722e+00 -1.1621367587209120e+01
      -4.7561710045719812e+00 -1.0876921061272135e+01
      6.6915500272754604e+00 -1.2500472506288252e+01
      -3.8003203784767003e+01 9.5330778515692671e+00
      -9.9062211294797253e-01 -1.1837794030180097e+01
      -4.0168230019479672e+01 -2.3910272003274816e+01
      -7.7217766649747288e+00 1.3535824184086389e+01
      -2.4399732612502550e+01 7.0510478460318247e+00
      -4.7321652314526602e-01 1.0310304045108966e+01
      2.1505281633939941e+01 1.8694602500872183e+01
      -3.7320612601410311e+01 9.0554553684044308e+00
      3.2691720816773882e+00 1.6309282642634411e+01
      5.1542371087118619e+00 -1.7201200988654794e+01
      -4.8549934831391376e+01 -2.7272941563043261e+01
      1.1464777630007163e+01 -1.4574342936948595e+01
      1.1151120413421179e+01 -5.1650616881979152e+00
      2.4067354615074574e+01 -8.1979252970885064e+00
      -3.6995936474160640e+00 1.5962860264934763e+01
      -1.5221025179667064e+01 1.2304267215317415e+01
      4.9161396105591724e+00 3.6313005202265032e+01
      2.2024738718843679e+01 9.2173071625988068e-01
      -2.7293861360385584e+01 -3.1529713748000749e+01
      2.1935733374771161e+01 -9.5678019891264228e+00
      6.7343137001393298e+00 1.0878242898583316e+01
      -5.1702552030465441e+00 1.3776885470973561e+01
      -2.5093902545311547e-01 9.8737805171597817e+00
      -3.9548434182609631e+00 -2.2992742139893767e+01
      1.8379802491865497e+01 -4.2705656747882394e+01
      9.6150597121347676e+00 -3.3315200607451914e+00
      -1.1568624413608186e+01 1.1752408845595964e+01
      -2.5345510568612156e+01 -4.4048919259147192e+00
      -2.5176873667650391e+01 2.6770242736339799e+01
      -9.0111037958112501e+00 -5.6722478198232906e+00
      1.1695389870934354e+01 5.5962366341919543e+00
      -4.4695342755009392e+01 -1.5141028678209085e+00
      3.8269330066015073e+01 -4.4246601774426342e+00
      -3.7567856372273929e+00 3.1713541177550755e+00
      3.0709547585327233e+01 2.3639011791334202e+01
      -2.1071625642568939e+01 -1.1140676315934748e+01
      -8.5482663532359547e+03 -2.1426890368080983e+01
      1.3447570275112263e+01 3.9461163484394788e+01
      -1.3073674849445606e+01 -2.9009162497557771e+01
      2.2972075435743175e+01 1.0076193981359352e+00
      1.8099408806655436e+01 2.7018660588672358e+01
      1.4331007985744337e+01 -7.1035140690649952e+00
      -1.8481939893289578e+01 -3.3153853517698098e+00
      3.1525990792928120e+01 -3.6361591716193956e+01
      2.5741898988834535e+01 5.3937575705317551e+00
      4.7838870999337686e+01 3.1935034305797622e+01
      6.2776819260262906e+00 -7.7162235045187856e+01
      -9.6333685447990867e+00 -2.4838153379432125e+01
      8.7160552877910433e+00 -5.3523189287228149e+01
      1.2568229275171316e+01 -3.8461064451310875e+01
      5.0216061942192972e+01 -2.7047422128471961e+01
      -4.6750222198626886e+01 -4.7523957081597644e+01
      -2.2128761649743883e+01 5.9049019388415452e+01
      -7.8019815980659706e+00 1.1499654111783018e+01
      -1.4343642689502637e+01 4.6869783293671254e+01
      -2.8970769020815048e+01 1.2956971696690548e+01
      2.8908557262839604e+01 -4.9659879946407692e+01
      -1.4281029902981842e+01 -9.3137671392982160e+00
      -3.4248162484135122e+01 1.1184869065393451e+01
      -2.9749924165232706e+01 -3.0241599309967903e+01
      2.5593015960938015e+01 1.8183193430968956e+01
      3.2724190301994142e+01 7.1939292570102458e+00
      1.0725159473692656e+00 -2.2407929585320844e+01
      -3.1777331660260764e+00 2.2778165548447751e+00
      -3.4054365201271260e+01 2.4515797887593969e+01
      2.4078815147379192e+01 -9.9880466024000683e+00
      -1.4325454739838881e+01 1.0607547682517771e+01
      2.6651694696644967e+01 4.2047435150196305e-01
      3.3289357821652416e+01 1.1946015711282145e+01
      2.9445321771083368e+01 3.0101234405633381e+01
      1.6405531946648004e+01 1.0405235748755730e+00
      7.3537214679085627e+00 3.3492138212068191e+01
      2.3008182149693049e+01 4.5457238058275458e+01
      -3.1946924988642094e+00 3.0306249906534006e+01
      8.0266847819404958e+00 2.5852886201990106e+00
      5.5592437804761516e+00 3.6771052669215209e+01
      4.0214642909456870e+01 5.1530985777427027e+01
      1.0893981005913428e+01 -1.8757130879406866e+01
      8.3807100130967918e+00 -3.8969560848605767e+01
      2.4434298978388064e+01 -5.9703226381852332e+01
      -9.5054563680400488e+00 2.0805381190553760e+01
      2.1397745188625940e+01 -3.4231425684382053e+01
      9.9260516905803104e+00 -2.5756448181710944e+01
      1.7838763245700157e+01 -6.4464059154809679e+00
      -5.8004711880896194e+00 -8.3481615565619016e+00
      5.4519084686659717e+01 4.5747971387261250e+00
      -1.6964180071234164e+01 2.0637084092442908e+01
      -1.5928186475030369e+01 2.9773945549385324e+01
      -3.1165925507332666e+01 -4.4215111725029693e+01
      -4.3343921811048716e+01 -3.1528794870426022e+00
      3.7116491695415277e+01 3.4478407583868098e+01
      -2.3377521782641384e+01 -1.3261957379216209e+01
      3.8301686361063133e+01 7.5463498217511313e+00
      2.4368745398594172e+01 -3.9467441194742725e+00
      -5.1087979758904623e+01 -1.4166130597549339e+01
      9.1694412998811394e+00 -2.3547660321095407e+01
      -5.3124355409156623e+00 5.0464580930124081e-01
      1.2466470725318450e+01 3.5429988557802915e+01
      -2.4168869613851424e+01 1.3336671836298194e+01
      1.1648598401853231e+01 -1.7603278481351077e+00
      -1.9626718461464289e+01 -4.8677067653084993e+00
      -1.4676434427361758e+00 -4.2061805944369354e+01
      4.6666983759925671e+00 2.9165305802202550e+01
      -3.0505779715621379e+01 2.1185386165125742e+01
      -5.2010869520672230e+01 2.3853494887518274e+01
      -2.8708539850538184e+01 -4.1467704772915127e+01
      2.8615796454736842e+01 -4.2625565782189597e+01
      -6.7545408617805677e+01 -7.0594165064226626e+00
      -2.2906360491722766e+00 -2.0697903624860380e+01
      -5.4498576493187883e+01 6.1152135037546724e+00
      1.3110398023831161e+01 3.3521810646491325e+01
      -1.6225917886907178e+04 -1.4220315388325337e+01
      4.2074088579632104e+01 2.9848801130490642e+01
      8.0510718835203207e+01 -2.9268104206923468e+01
      -2.9903690974187473e+01 -6.6989161871380134e+01
      6.4640993907134259e+01 1.9471483890439895e+01
      3.2232885694457103e+01 9.0450970528541518e+01
      -2.1227643354116196e+01 4.8291196597609805e+01
      4.4235313614820143e+01 -1.5373117046821962e+01
      1.1128016599362098e+01 6.4966950308283486e+01
      1.2476776345481312e+01 1.6706299479193725e+00
      4.6112123400985574e+01 -3.7772321387171303e+01
      4.3123384009438645e+01 -6.1831097818039034e+00
      2.5802936102178752e+01 -2.4838432051619243e+01
      -6.4889374910106827e+00 -5.4684222425676531e+01
      2.9989087447927890e+01 -4.7785525704587364e+01
      -4.6687518671544673e+01 -8.4256736146151567e+00
      -3.3117497911383992e+01 6.2882419950571844e+01
      -5.1004337373699101e+01 3.6680962163462105e+01
      -3.5151588417204643e+01 3.6196330289929925e+01
      -1.9407195621341518e+01 1.9585589621886150e+01
      5.3182200617884291e+01 -1.2447243776025491e+01
      -4.7024397339790255e+01 -3.9183821809336123e+01
      -7.1159799840030331e+01 1.9311319400203395e+01
      -2.0712681148522574e+01 -4.2698985658709340e+01
      -3.8828192211201937e+01 -1.4860229909133515e+01
      6.4897779244113735e+01 5.5463871788219507e+01
      3.7983287748106846e+01 5.3288072406032043e+01
      -3.6436781592445065e+01 3.2270265762443231e+01
      -1.3040323822826867e+01 1.1396285882023779e+01
      1.1670500868077170e+01 3.7787651220419889e+01
      -6.0024291575965343e+01 2.6567333932939619e+01
      5.2536780055496841e+01 1.8928311832360585e+01
      1.3419124885368754e+01 -2.7214770162588046e+01
      3.8655849861820656e+01 1.7441422831296656e+01
      3.1333556599652098e+01 -4.7965858967230524e+01
      -1.4971957006129617e+01 -2.9910531829847681e+01
      6.8195627855381872e+01 3.7220999636423116e+01
      -3.4126740703211979e+01 4.9120451095879737e+01
      1.4288251494499907e+01 -6.6901649443796614e+01
      5.1885418054712765e+01 3.5020645412941818e+01
      2.9030372045809884e+01 3.2682740675427027e+01
      3.2164711951509865e+01 -4.3687405659545867e+01
      1.2923408138966598e+01 -4.3192540345867059e+01
      -4.7868444664381322e+01 -2.1077804793797732e+01
      -9.3711163695573259e+00 -5.2975979289405920e+01
      3.8425607664971174e+01 -3.3543254622408614e+00
      5.4510269413475619e+01 -1.1084525352125958e+01
      -7.9160371899867442e+01 -3.9122272032736625e+01
      2.4480503812167449e+01 -3.1092150152655744e+00
      -6.9883577298800912e+00 6.9782322786879448e+01
      2.0818829100920077e+01 1.7683640833466193e+01
      -5.9059697554072898e+01 2.9772788741689176e+01
      -7.2184538570153734e+01 -6.7118818892360546e+00
      5.4680856111206388e+01 3.3168080306692985e+01
      -1.7020234898456841e+00 4.8955207401869011e+01
      -4.6833925226947457e+01 3.5941915311501418e+01
      3.4427385698064754e+01 2.7459041464521729e+01
      3.3916886132873671e+01 2.3744833684992340e+01
      -3.4383688292100700e+01 -6.8906669698947724e+01
      2.0095267950112014e+01 -6.6315579237919478e+00
      5.2324788795530345e+01 1.6934854215006411e+01
      5.7359521647331206e+01 3.8999005290156511e+01
      -3.8457577475278832e+01 3.0231998839891889e+00
      -3.0770761429100553e+01 2.8097750180063247e+01
      -3.2097727810093041e+01 -3.3933646246446720e+01
      -5.9232135221888889e+01 -4.1303193022917974e+01
      -4.0653539905820502e+01 2.0674168051009580e+01
      -4.5663747031092683e+01 -1.1510095847009502e+01
      -4.7680653497993177e+01 4.9058544135945439e+01
      -2.9067310959301398e+01 -3.9510826815371423e+01
      5.4784577016970772e+01 -2.7971180652683561e+01
      -4.0602408442786988e+01 -3.1636044324838725e+01
      -1.6408134932077658e+01 -2.1635318475189372e+01
      -4.3512053759460031e+01 -6.4782762496678316e+01
      2.6449532450064275e+01 4.7248750926324313e+01
      2.5079367117773572e+03 3.9731424365931680e+01
      3.3948215196255593e+00 1.4683371749882784e-01
      -3.4563694357334683e+01 9.7851765087845255e+00
      2.3052658264999661e+01 3.3991052205721353e+01
      -2.1914714282403406e+01 -2.1334348256660924e+01
      -8.8157019818854163e+00 -7.2200183136658973e+00
      4.5989185725064473e+01 -6.5774156931293888e+00
      -3.7472346254555958e+01 8.0383259823217728e+00
      -2.4114400793858149e+01 5.0317013110650599e+00
      -3.1569248650086411e+01 -6.0554384135069075e+00
      -7.1259697671411049e+00 2.1941179222773155e+01
      9.4806562951499340e-01 1.3855221224515908e+01
      -1.1134823281908593e+01 -4.9062154315801969e+01
      1.7379627086480600e+01 2.6708426154681003e+01
      -1.1248077374390117e+01 -1.0579136030211747e-01
      -1.1073409866400727e+01 3.4348480930991897e+01
      2.9661754072501640e+01 2.2563674060762735e+00
      -2.0278550027130264e+00 -1.4696749607419692e+01
      -1.5997259270387449e+01 -1.5845171463581007e+01
      1.4230091675833771e+01 -2.8918616100495619e+01
      5.4414888236431427e+00 2.8426234359636162e+01
      1.0013517342833727e+00 3.1428442678601424e+01
      2.3428758135299905e+01 -7.7993016510739777e-01
      1.2610159664227288e+01 -5.8615516529742369e+00
      3.9069531630926392e+01 1.4140124388086235e+01
      -4.9534088046655951e+00 6.7283282948702610e+00
      -4.7633310899779687e+01 -1.0935915060151089e+01
      1.1641764094360761e+01 2.5380739843886609e+01
      3.8739863960377691e-01 1.5541468258571944e+01
      -2.8754016856960590e+01 -1.1273834589859591e+01
      -1.3040875806889254e+01 -3.1184489202326549e+01
      -6.3864541412442855e-01 -2.8329974769470634e-01
      -8.0483116065249511e+00 -9.3465187118521271e+00
      -2.1805106274876952e+01 -2.2366422875259360e+01
      3.1374276498560620e+00 4.8974793776507383e+01
      1.2713139839840554e+01 -2.4447339076313867e+01
      2.7046552969638661e+01 -3.5700496061586456e+01
      2.2617537643409076e+01 -9.6649674148258722e+00
      -3.5644166874784138e+00 -1.0929374796525847e+01
      1.0041420375846027e+01 1.1151321798611473e+01
      -3.0165423200986947e+01 -2.8267249941781847e+00
      4.7265075090383029e+00 1.7057977527660135e+01
      -2.1792908624859752e+01 5.8156452004755002e+00
      -1.6659510702198389e+01 9.3353402670932848e+00
      1.4924387309344955e+00 2.0243490966916156e+01
      3.5646648433814818e+01 1.8121984504514312e+01
      -2.6554671270168260e+01 5.5983832169781014e+00
      -7.7957880709593947e+00 3.8417531093315887e+01
      8.2827886310890264e+00 3.5127429251073643e+01
      -1.6343534686161295e+01 -2.3302562478035430e+01
      -5.9220045001682768e+00 9.6977097115615285e-01
      4.9582691282550215e+01 9.6763821667896028e+00
      -9.1174205644558876e-03 -1.1503099600027237e+01
      -1.5248714792745027e+01 -2.9376461964179615e+01
      -3.2675015431692216e+01 -8.0813009093598502e+00
      1.3864825704122905e+01 1.1055748423874466e+01
      -1.3658181857368344e+01 -1.9874508989851645e+01
      -4.4307857746231507e+00 1.1551583392697779e+01
      5.1542970432371558e+00 -3.4731175244495851e+01
      1.5718638601035758e+01 4.2396160721369407e+00
      -4.6305270444045501e+00 2.6541837761502098e+01
      -2.3226376310342790e+01 -1.5409397936853356e+01
      2.5548571098758160e+01 -7.8556921210973067e+00
      -1.1565014006643109e+01 4.2342673254339545e+01
      4.9732397589996367e+01 -1.7843118251750866e+01
      8.7334605369282290e+00 7.4418981234947186e+00
      1.4107571463197988e+01 -2.4318631455933552e+01
      2.2134923340706933e+01 2.2649412356797614e+00
      2.2633043716864112e+01 -9.5523853425434151e+00
      -1.6156913548198958e+01 -5.2303216855011745e-03
      -3.3192970700365898e+01 5.2055148145708063e+00
      4.0136579720263271e+01 1.5254700158912206e+01
      -4.8835661707515969e+00 3.0516130725544745e+01
      2.4862866298171337e+01 3.3778120343944695e+00
      2.3225781182236647e+00 -1.1639857687282413e+01
      3.5076703508607739e+03 1.8456261078299562e+01
      -9.3261398585984239e+00 -1.2762163949446457e+01
      -1.3281434566340913e+01 -1.0548318371094741e+01
      2.8700906618121532e+01 -1.5352726070046423e+01
      1.0489644700579586e+01 -9.6044518852117999e+00
      -7.9326026984697151e+00 -3.2263020674736488e+01
      3.2474659688686742e+01 -2.5348193129054753e+01
      3.4748361680173154e+01 -4.3587638520265504e+00
      1.0450658722864643e+01 -1.3145613955990843e+01
      -1.8238594496302412e+00 -1.2302885342319216e+01
      -1.2068203278039283e+01 9.2932001955147907e+00
      -7.5741540157055445e+00 6.7468889857264847e+00
      -6.4162861135127995e+00 1.0272826238269690e+01
      3.3847208824817926e+01 9.9415997701459635e-01
      -1.6798196200228020e+01 7.7972826146976590e+00
      7.4375674940293548e+00 -6.6006268052275026e+00
      -6.3805236080474614e+00 7.9942058146165609e+00
      1.2153183108132080e+01 -7.8515788894506304e+00
      3.5342881303573222e+01 -1.1874417757802428e+01
      1.1476385505684336e+01 2.7077615326645925e+00
      -2.0399168583707944e+01 2.3208177519206235e+01
      6.9056910683218238e+00 2.0651246678439179e+01
      -1.3344600388776791e+00 3.2780057683356884e-01
      1.6331316551506152e+01 1.3836393266999183e+01
      1.5805562208277198e+01 -1.5597217774535947e+01
      -5.0783565372160140e+01 8.0479202290855234e+00
      4.5827091480045450e+00 -1.6631823767441134e+01
      6.7059527221075177e+00 -3.2846876965008654e+01
      -5.1983965641441214e+00 -4.5622262254460054e+01
      -2.4707183358303283e+01 2.0694069874979076e-01
      3.2241410452407194e+01 -5.6527572239000747e+00
      -1.2500712794410378e+01 8.1237300558025787e+00
      9.4025186455258716e+00 2.8549083692301274e+01
      2.5829944023044131e+00 -9.0406079486575148e+00
      -1.8059320229000285e+01 3.4396981825640751e+01
      -2.3375351177832357e+01 2.0449271962629311e+01
      1.5167873564515649e+01 1.2082004478671267e+01
      2.0713493096139640e+01 -1.8514448488302918e+01
      -1.7342398493914420e+01 4.3309887250264173e-01
      -1.3077098296644344e+01 -2.1177742279611707e+01
      -8.5484605951210213e+00 5.8397972212594897e+00
      7.0012171382820387e+00 -1.5582080295251295e+01
      -1.0115269181205906e+00 1.5547409166816057e+00
      -1.1527180863044366e+01 4.1575277994542406e+00
      3.3345896791229803e+00 2.1613131125769733e+01
      -1.6426081899618801e+01 2.0847339558336433e+01
      6.6046534012818183e+00 7.4660878632203831e-01
      3.0084632459684897e+01 -2.8926817447149656e+01
      -1.4281073139547619e+01 -3.5023155226413330e+01
      1.8870496527335874e+01 -9.1569406759943242e+00
      -1.4967463930456113e+01 -1.8655241128738037e+01
      1.8656030369497991e+01 7.6043220163665399e+00
      -3.8206792182164082e+00 7.1131931807776718e+00
      -3.3100124886491493e+01 -5.2761571564548902e+01
      -6.5644901537441545e+00 2.9842515988553092e+01
      8.1983383355105310e+00 -2.2433286046415031e+01
      7.0763217205597480e+00 -1.0359075139214166e+01
      -4.0195973616499131e+01 5.4722966111452411e+00
      7.3724240485568036e+00 1.6156861313019160e+01
      -1.2621623872877796e+01 1.7655331401152054e+01
      -4.6349019084522205e+01 1.3121391183742727e+01
      -2.5042508258230562e+01 7.2848139023460323e+00
      1.0684525480161993e+01 1.0168874222209594e+00
      3.2648335131835140e+01 3.7548438201390506e+00
      6.9693052258604480e+00 1.2490970359648214e+01
      -1.4633886165280146e+01 -3.9829448285291971e+00
      3.0121491521311921e+01 -9.9655071768157679e+00
      -4.1561134954351200e+00 3.0234733232406361e+00
      -2.3445254624780876e+01 -1.5834235074972678e+01
      1.7967486997284375e+01 2.9851012658416646e+01
      -1.2867195108184157e+01 1.0582569321512992e+01
      3.1079049009888394e+01 -3.1018846626256899e+01
      1.4443535788647525e+01 -1.6111725483921209e+01
      8.6435246538512145e-01 2.9241535911294423e+00
      3.9153906129780234e+00 3.8342696064644506e+00
      4.8988737111954888e+03 -4.6906004583909841e+01
      1.6975771721831439e+01 1.2512690705996732e+01
      5.2447878413567508e+01 -4.3596906478965082e+01
      -4.9472124630707377e+00 2.1838706425331967e+01
      9.0856513378640571e+00 6.6376700786782927e-01
      9.5878253353219662e+00 2.8043991855781858e+01
      -4.5424676780174742e+01 1.9103419812981159e+01
      8.4308274635518252e+00 -4.0311429615595973e+00
      2.1130616283850269e+01 1.7050792251463378e+01
      -2.1934894119498995e+01 3.4040689435361648e+00
      -2.1545411992999835e+01 -2.3044835304939806e+01
      -2.4838611238514003e+00 -3.4970022476196796e+01
      9.7110106923896176e+00 1.4180819073127104e+01
      -1.0976648349873805e+01 -3.9540984860473337e+01
      2.7127268417143835e+01 -4.3662532228212747e+00
      -7.2589880191134498e+01 9.4939906446421585e+00
      2.1836978959909942e+01 -4.8489136922360725e+00
      -5.2623911503551746e+01 -2.7717957140651944e+01
      1.6972967191361565e+01 3.2998941058277978e+01
      2.6169761908561245e+01 2.0270483884244321e+01
      3.2754960082403272e+01 -2.2895035275947947e+01
      -4.1993640241655562e+01 -2.4999668734057536e+01
      -1.7805498473780630e+00 -1.5223568602799495e+00
      4.8596990583831117e+00 -2.2144504803516738e+00
      -3.3031708661205961e+01 -2.1335135744687250e+01
      3.0606833460321834e+01 1.0097987637984989e+01
      2.5708668951210210e+01 5.3723238823785231e+01
      6.4514685352362999e+00 2.8717512105536340e+01
      -1.9667628194913249e+01 -3.6603132809143339e+00
      -2.0370861134444439e+01 2.1361770200226616e+01
      -1.2549684376441663e+01 -3.1335619963018829e+01
      2.4856288026498619e+00 1.1525874662359859e+01
      1.4189516580711350e+01 -1.5400332322830671e+01
      3.5101134297689185e+01 1.3075829584461827e+01
      1.3620495910369021e+01 7.3094554254887196e+00
      2.4628026429620675e+01 3.4048531481750899e+01
      3.1938912978028572e+01 3.1480560441519170e+01
      -3.2785148229559184e+01 5.8538632816802538e+00
      -2.6979209686773289e+00 -2.1251132984244236e+01
      4.5939325795416018e+01 4.2419934735891069e+01
      -2.8978622096259585e+01 2.0830512333228242e+01
      4.7692750478076178e+01 3.6734849176959379e+01
      1.2096728273490314e+01 5.3710114936148134e-01
      -3.0572703781133356e+01 -4.3251593766121005e+01
      5.3364065924250532e+00 1.1280110682804930e+01
      3.5151519601341557e+00 -3.0416659072758133e+01
      1.4539984352102861e+01 4.1196034072561460e+01
      -1.6762576549083430e+01 -3.3187296087980677e+01
      -2.0699157638577526e+00 1.9807141336784852e+01
      -3.6736961019964387e-01 3.5257587004513347e+01
      3.2645451273235786e+01 -1.7760503612213075e+01
      -1.9013078923842755e+01 7.8812161299992187e+00
      -1.2883046251704767e+01 3.3541740645173640e+01
      1.5525578758658906e+01 3.3587599212826476e+01
      4.4761186823582534e+01 6.8060068012160082e+00
      -1.2570474926846876e+01 1.6770092760403104e+00
      -5.1682353840904590e+01 2.5116384304000197e+00
      2.9916301993756456e+01 -5.5065276468791859e+00
      9.0616066846478311e+00 1.5352666567913573e+01
      2.3187956220678565e+01 -6.2183686908040038e+01
      1.9473740630654142e+01 3.0726387561635214e+01
      -2.1823001938358107e+01 4.6729667841493931e+00
      -4.2905182409979020e+01 1.3333449746914644e+01
      1.4059698302224315e+00 1.5605677112714384e+01
      1.1669896150849237e+00 1.0957194564838032e+01
      -7.1204798905219064e+00 -3.3711670629044370e+01
      -2.7402217695698315e+01 3.5812092235574475e+01
      -5.2946824781843143e+00 -2.5545772771051482e+01
      -3.5610593509383115e+01 3.6962862323911409e+01
      1.6738820246322422e+01 -4.6967765934256805e-01
      5.1743185253678678e+00 -9.3630959031584577e+00
      -3.9055238451871034e+01 7.1212661995275841e+00
      1.7409682617839664e+01 -7.8699768914698680e+00
      -2.4269132050903899e+01 -1.4973548124174592e+01
      1.5246871486324398e+01 7.6390274176756838e+00
      -4.5669178037937354e+03 -1.3910146794646250e+00
      4.9202332934576887e+01 3.9805242517320544e+01
      2.7280584499536754e+01 -2.6862719072938180e+01
      -4.5148750805485854e+01 -2.5097173005021162e+01
      2.2923865899395743e+01 8.2428989596207403e-01
      2.1239883954695664e+01 2.0270613899899782e+01
      7.5311815441147063e+00 5.0372037622767403e+00
      3.0236662945255482e+01 5.4762648002518315e+00
      3.1566830634127712e+01 -6.3703273285925022e+00
      1.0113473220763336e+01 3.5138839363540313e+01
      -2.3637111497266154e+01 -1.1352471311450163e+01
      7.1247145476222480e+00 -3.6244041958686630e+01
      1.1613593815680888e+01 -5.6661260777694181e+01
      -3.4037000869825491e+01 -2.3615779529863538e+01
      1.7331308429311122e+01 -2.3482014702593290e+01
      -2.0263425149929336e+01 -2.8740056387699223e+01
      -7.6152508890094825e+00 3.1060088777852798e+01
      1.3752597882628277e+00 3.2022478390667452e+01
      -2.1624702961866785e+01 2.3927952705298100e+01
      -1.7899812631515239e+01 3.2437061393409458e+01
      1.4324441936873370e+01 -1.7230858276480543e+01
      -2.0197143600945601e+01 -2.1505680595869332e+01
      -1.5724178785229192e+01 1.0493675312706786e+01
      -3.0575438841307498e+01 -2.9381811412934244e+01
      -5.3899147138678977e+01 1.6938090645076187e+01
      2.7073216525217894e+01 1.4979784797253204e+01
      3.2825369980507574e+01 -6.0456061627517537e+00
      -4.2005176513793018e+01 8.9097044551237765e+00
      -6.5921630232221311e+00 -4.4187086615747786e+00
      3.8015042139569424e+01 1.9733707699044505e+01
      -3.5625145791716626e+01 1.5005146448580481e+01
      -3.7468913067669924e+01 5.6241745556389722e+00
      2.9761454724697757e+01 -2.4991808708290325e+01
      3.9240573291786767e+01 7.9851294069201648e+00
      1.8447216067443332e+01 -7.1973164462375250e+00
      -4.2641867821190068e+01 6.8897124007100139e+00
      2.5886471898911321e+01 4.1447059194685828e+01
      -2.1576277322206867e+01 5.6360957789593407e+01
      1.2974846301731276e+01 -2.1022228049936725e+01
      4.7130111944769837e+01 3.5601814419935359e+01
      1.6803008963594500e+01 2.7247039921883388e+01
      1.0225840201820764e+01 -1.0270334465636248e+01
      -7.1075730372779047e+00 -1.5414104519421372e+01
      -3.9665177509266613e+01 -3.2192555268475573e+01
      -4.1823412768330208e+01 -1.7025482873901827e+00
      2.4160897417259157e+01 -2.0697302556921201e+01
      3.0666094728501648e+01 -2.3750075305564508e+01
      -2.7297783072830388e+01 -1.5183906641661727e+01
      5.0454203816724643e+00 -4.6660814652464033e+01
      -1.0652297475074066e+01 1.4430684751858172e+01
      3.7060950911089257e+01 -1.0895031759754026e+01
      -1.2074543868123587e+01 2.7737695525805698e+01
      -1.4307375330495846e+01 -2.8469940238589398e+01
      2.9021952749038917e+01 3.3423774559001721e+01
      -2.0902165526535835e+01 3.4680634693206393e+01
      -3.4265044827886634e+01 3.1557742342142308e+01
      4.2973387193644143e+01 1.2784272507271108e+01
      1.7401499540801414e+01 1.4311042418031958e+01
      -1.0521312931803637e+00 -1.2595603938041441e+01
      1.6419204829953006e+01 4.7875531285111184e-03
      4.1898148021242754e+01 8.3881691950021402e+00
      3.6803994465776213e+01 3.4086607014858323e+01
      -3.8581452496128676e+01 2.6728163272644011e+01
      -5.4680410211903743e+00 3.5421517668947217e+01
      -1.6386448007510978e+01 1.2088487596924956e-01
      -4.9890118869631600e+01 -1.7854367537412692e+01
      -2.0482592434401948e+01 2.4652328690182355e+01
      -4.1273435239797223e+01 -3.2763616013846182e+01
      -4.1028837164917491e+01 1.4747636542656027e+01
      -8.7980724272776865e+00 -5.7498976497831784e+01
      3.8094547652740410e+01 -2.7883745098540636e+01
      -2.4275526713432090e+01 -2.2686526539377947e+01
      -3.7070987853951838e+00 -1.8942985809538317e+01
      -2.2367789354041555e+01 4.9308583893907944e+01
      -9.3120406953900961e-02 3.5924599399426032e+00
      -2.1333425329445941e+04 -4.0507988974184542e+01
      8.0610381247452523e+01 3.9547179881924350e+01
      3.4969102505557629e+01 -4.4802516024417756e+01
      -2.1754842473917112e+01 -3.1473902129933325e+01
      2.5789760461824187e+01 3.9687490598127056e+01
      2.7424872127831797e+01 1.8278801083570450e+01
      -4.4609478772747295e+01 3.3876509894868811e+01
      3.2006725070219822e+01 -5.2330035363530058e+01
      4.1512050945725875e+01 2.8827253737058289e+01
      3.9393873022936013e+01 4.0015878487511252e+01
      5.2324850135193543e+01 -4.3223647675228655e+01
      2.0861828875397734e+01 -3.9346806999159021e+01
      2.3691423245707853e+01 -5.8481144892784876e+01
      -2.4376335102221070e+01 -3.1801560124881817e+01
      5.1509953363188217e+01 -2.4071329769354353e+01
      -3.2819245453444779e+01 -6.1452969598815251e+01
      -3.4925098408702979e+01 4.3956949658050362e+01
      -6.2670398099783409e+00 8.2745765335093125e+01
      -4.4828015726189520e+01 3.9700062214016015e+01
      -1.9806118161444680e+01 3.1943113485438673e+01
      1.9959204250138114e+01 -1.4656831061564825e+01
      -3.9782442752642936e+01 -2.5796900209705615e+01
      -2.7009760852713338e+01 2.0583145178264253e+01
      -5.6947936109943150e+01 -2.9282196063202008e+01
      -4.9821615794341611e+01 -5.0372275723050073e+01
      4.8946235031890915e+01 2.9839692405184842e+01
      1.0813461633382669e+01 6.0627880132402659e+01
      -3.6950202495013514e+01 4.6950321022192064e+01
      -1.5800535545008431e+01 5.7430621213412657e+01
      7.7737731865474615e+01 2.8633365753667057e+01
      -4.0508185215901051e+01 3.7902318730542753e+01
      2.1080240133169628e+01 7.0944489652411264e+01
      8.1593943906751178e+01 -6.5021776407498066e+01
      3.8834763647100083e+01 4.4430632851611797e+01
      7.3112450958679943e+01 -1.8959247882159389e+01
      -4.9917921323161302e+01 -3.4409137574170011e+01
      3.8635826768607764e+01 2.9788802786483934e+01
      -8.0412717055088336e+01 1.1692972900909558e+01
      3.8021132367674070e+01 -5.0382582325332400e+01
      2.7634845878352941e+01 1.7089179108626396e+01
      2.6816747330974184e+01 4.4847118260136213e+01
      5.9813920336402802e+01 -2.3495421500671277e+01
      -4.6087947198726035e+01 -4.3554536896339080e+01
      -1.7538929612600494e+01 -2.9846265258992993e+01
      -7.0296458522616533e+01 -2.3067562631499097e+01
      5.3000235885656267e+01 -5.1116602716555853e+01
      4.7767292262450546e+01 -5.1918963605956883e+01
      -5.0871045528796046e+01 -4.0450137022456317e+01
      5.7017657356723070e+01 -7.0208416781916057e+01
      6.0212009544028390e+01 3.5919006631543844e+01
      3.4887147885677820e+01 -3.1546624831798617e+01
      -2.3972328139721323e+01 1.2490299821121036e+01
      -5.9423737031352445e+01 -3.8945058146939814e+01
      3.2754790395291579e+01 4.0487971577944329e+01
      -6.4128229145981038e+01 2.9735702790287856e+01
      -3.3105244180302748e+01 2.1576674811748759e+01
      4.0468135788502707e+01 1.7365102690705367e+01
      3.1457298319571898e+01 4.1502849860648084e+01
      -6.2131331246995636e+01 -1.5789310476726302e+01
      2.2684007909967768e+01 -1.0897335468629072e+01
      3.5988419962043224e+01 1.4163660471372145e+01
      4.8749582378165471e+01 2.1043997870155227e+01
      -2.8498785017781458e+01 4.6214080792227932e+01
      -5.4599520767932475e+01 7.9991969621251911e+01
      -1.1432100275074374e+01 -2.6263321877308304e+01
      -5.2743128753749687e+01 -4.5223875506656476e+01
      -4.2948142285365485e+01 4.4264630230549081e+01
      -2.7748840647316456e+01 -2.9290081126706465e+01
      -7.4760332632721273e+01 5.9423509363814951e+01
      -5.7062388308358322e+01 -4.0474704653745583e+01
      2.7300641061080576e+01 -1.8882449230456842e+01
      -2.4554573118787452e+01 -3.3012323303013147e+01
      -8.0534968493364065e+00 -5.8494439106622686e+01
      -4.8870988272927242e+01 -3.9362828818506330e+01
      1.8331557418331752e+01 3.1101680249834590e+01
      -2.1682542242792265e+03 4.1853714337923627e+01
      -5.6632407587917200e+01 -4.1699172617058203e+01
      -1.7867150597834726e+01 3.1415470479959030e+01
      3.9968989376521201e+01 -3.7841775124754342e+00
      -1.9890611754143158e+01 -1.3654313053820581e+00
      2.5681141019589471e+00 -3.0926663869399480e+01
      1.0565535054253827e+01 1.2901380145872798e+01
      1.8228782720761842e+00 1.8585994756941925e+01
      -3.4603697537870040e+01 -4.8905396880095111e+01
      -2.7619821121823374e+01 -7.1872875800755320e+00
      -3.0665700515713244e+01 -1.2343179577801962e+00
      -7.6260040596883156e+00 2.6972854955093933e+01
      -1.4634310772074869e+01 1.7001755253229238e+01
      5.6714920430606046e+00 9.0034706647858564e-01
      -2.1211664122428168e+01 2.2633562259051139e+01
      -1.3772929976873240e+01 2.7857268910453545e+01
      1.0870839445654589e+01 -6.4126553996285729e+00
      1.1834752705507436e+01 -1.1065168041045029e+01
      -2.0716241080938946e+01 -9.1572980288888495e+00
      3.3539402798072060e+00 -3.4701425761407997e+01
      -2.8970134414326008e+01 5.4459680322234796e+00
      2.8500716965585151e+00 4.7728707159880173e+01
      2.2264910482728816e+01 -3.8567955389490689e+00
      -1.3044054082248232e+01 -2.9907200311616929e+01
      2.1293502776123898e+01 5.5914370780958675e+00
      9.2539994608454865e+00 9.6394493341479652e+00
      -1.0078648713971210e+00 -3.5173969917528067e+00
      4.3418464982313179e+00 -2.4684618820411227e+01
      4.1644812216164517e+00 -1.0758425545128127e+01
      -1.7752391939247268e+01 -3.2373506705508142e+01
      1.9607968162745003e+01 -8.0214147672430638e+00
      6.9847101296928624e+00 -3.6305306872471590e+01
      -2.0371137188587305e+01 4.5162175264982904e+00
      -6.2317598992496720e+01 -1.0368190647956133e+01
      -1.1943619008680256e+01 1.9813073856026697e+00
      5.5674725094529386e+01 -2.0016096426351588e+01
      -3.3726980487677537e+01 -2.4475547759791869e+01
      2.4186620088178000e+01 -2.9265648878851110e+01
      -1.6114794071523594e+01 2.8836268826957419e+01
      -3.6232551495400167e+00 -1.0229252410875473e+01
      -1.4348847141730277e+01 1.0951136215740977e+01
      -2.0062774779582192e+01 2.9715743144842467e+01
      1.3478088289440718e+01 2.1998484071746528e+01
      2.2021586231338578e+01 1.1692346761309718e+01
      1.1553312191375166e+01 1.8481394186443826e+01
      -1.7751453388465464e+01 8.3891638666150996e+00
      1.2327810854939289e+01 3.5113257785487718e+01
      5.2036265034385947e+00 3.4567087697178209e+01
      -2.1093316751980566e+00 2.9363795002793616e+01
      -1.9991913977572782e+01 -2.6198457842803489e+01
      1.6630107288261065e+01 3.4280309921746792e+01
      3.0022770083183737e+01 2.6766947500760070e+00
      1.0604630049744863e+01 1.4595683326199110e+01
      -4.3391900884551022e+00 1.7714293330955573e+00
      1.7077651080804841e+01 -2.3621716690393118e+01
      2.9627363505499012e+01 -5.5742519426335491e-01
      -1.0161500318831740e+01 -1.4660891907232230e+01
      -1.2992141227291047e+01 -1.7810833219067677e+00
      2.8684139603428687e+01 2.0084486013446284e+01
      -1.3667270293509443e+01 -1.7143597264186297e+01
      1.2230801588441317e+01 -5.5167605534051587e+00
      1.3124981496162043e+01 2.1701785454796585e-01
      -6.6940787319490824e-01 1.3830779217833731e+01
      3.9809687012876360e+01 -6.6204489850022838e+01
      1.0436022190195120e+01 -1.3507592192970204e+01
      -3.1429535433844723e+01 1.7613708798929952e+01
      -3.8039821241783107e+00 -1.0430215579850676e+01
      6.5856220232751257e+00 4.1038296069262280e+01
      4.2999635208741523e+01 3.9533351980347757e+00
      -8.8394897219712902e+00 8.4844293831578916e+00
      -4.1136891987890102e+01 2.9220823786218757e+00
      3.3664870771958952e+01 1.2156238641137009e+00
      -2.0024355526657232e+00 2.2434933132013025e+01
      2.3919246552468245e+01 2.0169732964394164e+01
      -3.9656643062918967e+01 -1.4099696855057832e+01
      -1.1625919969163790e+04 -3.7319716448464305e+01
      2.7858569843098984e+01 4.7644021136571331e+00
      3.4775560150384585e+01 1.3122443661237261e+01
      -2.9735344683374155e+01 -3.0008118217807574e+01
      3.2082135303352217e+01 9.0073160814326442e+01
      1.9891425893528876e+01 2.3348874306320361e+01
      -2.4909911668006726e+00 -1.6221712431973266e+01
      2.8551809158168346e+01 -2.6788579776092853e+01
      5.3075197145516704e+00 8.0177855894554249e+00
      5.5088010636553733e+01 2.1355096859140446e+01
      6.9785577358617431e+01 -7.8486391921105820e+01
      2.1661704080847894e+01 -2.2599193414897517e+01
      1.6826255469538850e+01 -1.7384911374930581e+01
      -6.4892961335515675e-01 -1.1019080968770943e+01
      4.8915415789651206e+01 -1.7087984883463459e+01
      5.9877795312125777e+00 -6.1402344241115571e+01
      -1.2029990757994343e+01 5.1799527441844127e+01
      -6.4352481038717656e+01 6.4028927495126851e+01
      -2.4309001177401132e+01 6.8191465755602266e+01
      -2.2160021693486254e+01 1.0036685342610472e+01
      2.8749166272676458e+01 -2.8248215668736631e+01
      -1.1304213419032244e+01 -4.7001913473299616e+01
      -2.7844312486146769e+01 1.5981087772644784e+01
      -2.1120877673136547e+00 -2.7371870179173694e+01
      -2.2192256939277115e+01 -6.9573185824118596e+01
      1.6463265481009774e+01 -3.5107141206427372e+00
      5.8649370490744985e+00 -1.1330013904226760e+01
      -4.8154435134499991e+01 5.3461820265306770e+01
      -5.2114076192404546e+01 3.5791821787479918e+01
      3.6846192534472316e+01 3.6992710410628490e+01
      -3.5023322267224137e+00 4.6929556103135198e+01
      3.1566491761964393e+01 4.4627585737639855e+01
      3.4966658460296912e+01 -3.6643518699916555e+01
      6.8296219307718653e+00 2.4949904634460452e+01
      2.7593634607129317e+01 -4.7191799862606288e+01
      -3.5369572624027730e+00 -5.1838413817667288e+01
      -1.1406581988925156e+01 2.0225834480071811e+01
      -4.3059942400262287e+01 3.0053448395830905e+01
      1.3660614750010129e+01 -6.3479456056539050e+01
      1.8585676313219953e+01 1.2836192756549902e+01
      3.0644290246845333e+01 5.0227016537220138e+01
      -2.3078548730729036e+01 -6.4494717934631936e+01
      -1.3912938378470963e+01 -5.9837182074722620e+01
      7.8327797273091644e+00 -3.3163776279681862e+01
      -3.4997424872691411e+01 1.1502571051868930e+01
      4.4338777376164003e+01 -1.0488968239164713e+00
      5.6505347844140410e+01 -5.7985896206504151e+01
      -9.3070222953029553e+00 -2.6594264970350526e+01
      2.2138049775014743e+01 -4.4001651834884811e+01
      3.2002550305379316e+01 4.1576783404192675e+01
      7.6908398229212381e+01 -5.2051809338124222e+01
      -2.4835277869655858e+01 1.3897838151141539e+01
      -2.9877203885029921e+01 -3.5192553688580226e+01
      2.8444210839100030e+01 6.4561018468528928e+01
      -3.0968402189608613e+00 4.8446732751120848e+01
      -3.1971732374320894e+01 3.4923602933136046e+01
      3.5741813833928170e+01 1.7248697536053545e+01
      1.6355947620630065e+01 -1.0342528597445780e+01
      -5.1474128511158774e+01 -4.6093203453056155e+01
      3.6440999379081568e+01 -4.3139743635409582e+00
      1.0991760072262627e+01 2.1319480226634436e+01
      4.9626969614074426e+01 4.7098909615117449e+01
      -2.8779415502888153e+01 3.5413704341983326e+01
      -3.2180135550725872e+01 3.5705373048034197e+00
      -2.7137281430053044e+01 -4.6131540223797991e+01
      -2.6134149303860823e+01 -2.1949466869161498e+01
      -4.2760821401803391e+01 3.5735020464728429e+01
      -2.2593055891388488e+01 1.9319572214809126e+00
      -4.1527767717706901e+01 1.7261321269212065e+01
      -4.6734242494707232e+01 -4.1021978716258467e+01
      3.2068090118587875e+01 -3.1477572838255849e+01
      -6.5942765599675937e+01 -2.8674452762508281e+01
      -9.2223488622597998e+00 -3.3455960992113667e+01
      -4.2652853956503257e+01 -2.5886780613311352e+01
      1.7435916625813874e+01 4.0712299511325838e+01
      -3.6201517745306601e+03 -3.7208992985271039e-01
      1.3353240346948698e+00 3.1710085526583086e+01
      -3.5147228755276658e+00 5.2417950116741050e+00
      -2.2387723453921801e+01 -4.2708453627272958e+00
      1.5058570954030056e+01 4.4166664477575729e+01
      4.4968949608097283e+01 4.4272312572168786e+01
      -6.5445877662833718e+00 2.9736197086198285e+01
      -1.2378989672130706e+01 1.6590068239795208e+00
      2.8398019124650798e+01 -6.5198123073590658e-02
      -2.9704563386697256e+00 1.8468116300768546e+01
      1.2410723214559356e+01 -3.2434043886754708e+01
      -4.0144781004019109e+01 -4.2459638736056924e+00
      1.4459327793430399e+01 -8.2150916023742635e+00
      -3.7522556680829403e+01 -4.5350631206587856e+01
      3.3648553181548678e+01 -3.4921982529960118e+01
      -3.1399734848568876e+01 -2.0023124302147988e+01
      -1.7375559504417705e+01 -4.9070133652100347e+00
      -2.3482146007658272e+01 3.6930649905219617e+01
      -1.3729163181249621e+01 -2.2084154179532366e+01
      -1.1753190148315912e+01 5.7320449820511166e-01
      4.1984373657490970e+01 1.3376598387210048e+01
      -1.2839177927967185e+01 -1.2288176080501648e+01
      -2.1767047893987602e+01 8.5802289035158008e+00
      -6.1994663469106328e+00 -1.0969809386091336e+01
      -2.1316625865604784e+01 4.6243524901640303e+00
      9.3379204522124037e-01 3.0146072148806868e+00
      1.3066618193433298e+01 -1.9051654900755903e+01
      -9.8240786131993421e+00 2.8598589023811165e+01
